{"invisibleLayer":[[[-0.6989949100552344,-0.36812143761498856,0.23667319299387835,0.9426890914625767,0.17996620636407026,0.009441691172608166,0.35175623958557545,0.002400786336731441,1.066125479916145,0.18377091651719646,-0.2609869640455365,-0.448863274678791,0.21201122427370295,1.1689454848671856,0.24508822999810112,-0.2539190064108085,-0.48213232178824506,-0.39064229964071207,0.23201911318100188,0.0879339386650375,0.04131680993107759,-0.13392568089082024,0.4982099409704433,0.66728958851413,0.11295475928565882,0.37799881160473126,1.2522655677485284,-0.03759885589696049,-0.42161082665283056,-0.09958591135392633,-0.3572265349062529,1.3617793432145724,0.8130082100192548,-0.6301941365207876,-0.1894404016128613,-0.289863822705644,0.9256774319707795,0.2926797330513544,-0.8225696817638328,-0.49859030026664175,-0.5419218686991395,1.1353567494411485,0.3955765114184183,-0.29114294872068325,-0.000970261081207982,0.45372860144413774,0.6364307027842664,0.011730985631572035,0.18944748614114273,-0.0011807333786971153,0.37799881160473126,1.2522655677485284,-0.03759885589696049,-0.42161082665283056,-0.09958591135392633,-0.3572265349062529,1.3617793432145724,0.8130082100192548,-0.6301941365207876,-0.1894404016128613,-0.289863822705644,0.9256774319707795,0.2926797330513544,-0.8225696817638328,-0.49859030026664175,-0.5419218686991395,1.1353567494411485,0.3955765114184183,-0.29114294872068325,-0.000970261081207982,0.45372860144413774,0.6364307027842664,0.011730985631572035,0.18944748614114273,-0.0011807333786971153,0.37799881160473126,1.2522655677485284,-0.03759885589696049,-0.42161082665283056,-0.09958591135392633,-0.3572265349062529,1.3617793432145724,0.8130082100192548,-0.6301941365207876,-0.1894404016128613,-0.289863822705644,0.9256774319707795,0.2926797330513544,-0.8225696817638328,-0.49859030026664175,-0.5419218686991395,1.1353567494411485,0.3955765114184183,-0.29114294872068325,-0.000970261081207982,0.45372860144413774,0.6364307027842664,0.011730985631572035,0.18944748614114273,-0.0011807333786971153,0.37799881160473126,1.2522655677485284,-0.03759885589696049,-0.42161082665283056,-0.09958591135392633,-0.3572265349062529,1.3617793432145724,0.8130082100192548,-0.6301941365207876,-0.1894404016128613,-0.289863822705644,0.9256774319707795,0.2926797330513544,-0.8225696817638328,-0.49859030026664175,-0.5419218686991395,1.1353567494411485,0.3955765114184183,-0.29114294872068325,-0.000970261081207982,0.45372860144413774,0.6364307027842664,0.011730985631572035,0.18944748614114273,-0.0011807333786971153,0.37799881160473126,1.2522655677485284,-0.03759885589696049,-0.42161082665283056,-0.09958591135392633,-0.3572265349062529,1.3617793432145724,0.8130082100192548,-0.6301941365207876,-0.1894404016128613,-0.289863822705644,0.9256774319707795,0.2926797330513544,-0.8225696817638328,-0.49859030026664175,-0.5419218686991395,1.1353567494411485,0.3955765114184183,-0.29114294872068325,-0.000970261081207982,0.45372860144413774,0.6364307027842664,0.011730985631572035,0.18944748614114273,-0.0011807333786971153,0.37799881160473126,1.2522655677485284,-0.03759885589696049,-0.42161082665283056,-0.09958591135392633,-0.3572265349062529,1.3617793432145724,0.8130082100192548,-0.6301941365207876,-0.1894404016128613,-0.289863822705644,0.9256774319707795,0.2926797330513544,-0.8225696817638328,-0.49859030026664175,-0.5419218686991395,1.1353567494411485,0.3955765114184183,-0.29114294872068325,-0.000970261081207982,0.45372860144413774,0.6364307027842664,0.011730985631572035,0.18944748614114273,-0.0011807333786971153,0.37799881160473126,1.2522655677485284,-0.03759885589696049,-0.42161082665283056,-0.09958591135392633,-0.3572265349062529,1.3617793432145724,0.8130082100192548,-0.6301941365207876,-0.1894404016128613,-0.289863822705644,0.9256774319707795,0.2926797330513544,-0.8225696817638328,-0.49859030026664175,-0.5419218686991395,1.1353567494411485,0.3955765114184183,-0.29114294872068325,-0.000970261081207982,0.45372860144413774,0.6364307027842664,0.011730985631572035,0.18944748614114273,-0.0011807333786971153,0.37799881160473126,1.2522655677485284,-0.03759885589696049,-0.42161082665283056,-0.09958591135392633,-0.3572265349062529,1.3617793432145724,0.8130082100192548,-0.6301941365207876,-0.1894404016128613,-0.289863822705644,0.9256774319707795,0.2926797330513544,-0.8225696817638328,-0.49859030026664175,-0.5419218686991395,1.1353567494411485,0.3955765114184183,-0.29114294872068325,-0.000970261081207982,0.45372860144413774,0.6364307027842664,0.011730985631572035,0.18944748614114273,-0.0011807333786971153,0.37799881160473126,1.2522655677485284,-0.03759885589696049,-0.42161082665283056,-0.09958591135392633,-0.3572265349062529,1.3617793432145724,0.8130082100192548,-0.6301941365207876,-0.1894404016128613,-0.289863822705644,0.9256774319707795,0.2926797330513544,-0.8225696817638328,-0.49859030026664175,-0.5419218686991395,1.1353567494411485,0.3955765114184183,-0.29114294872068325,-0.000970261081207982,0.45372860144413774,0.6364307027842664,0.011730985631572035,0.18944748614114273,-0.0011807333786971153,0.37799881160473126,1.2522655677485284,-0.03759885589696049,-0.42161082665283056,-0.09958591135392633,-0.3572265349062529,1.3617793432145724,0.8130082100192548,-0.6301941365207876,-0.1894404016128613,-0.289863822705644,0.9256774319707795,0.2926797330513544,-0.8225696817638328,-0.49859030026664175,-0.5419218686991395,1.1353567494411485,0.3955765114184183,-0.29114294872068325,-0.000970261081207982,0.45372860144413774,0.6364307027842664,0.011730985631572035,0.18944748614114273,-0.0011807333786971153,0.37799881160473126,1.2522655677485284,-0.03759885589696049,-0.42161082665283056,-0.09958591135392633,-0.3572265349062529,1.3617793432145724,0.8130082100192548,-0.6301941365207876,-0.1894404016128613,-0.289863822705644,0.9256774319707795,0.2926797330513544,-0.8225696817638328,-0.49859030026664175,-0.5419218686991395,1.1353567494411485,0.3955765114184183,-0.29114294872068325,-0.000970261081207982,0.45372860144413774,0.6364307027842664,0.011730985631572035,0.18944748614114273,-0.0011807333786971153,0.37799881160473126,1.2522655677485284,-0.03759885589696049,-0.42161082665283056,-0.09958591135392633,-0.3572265349062529,1.3617793432145724,0.8130082100192548,-0.6301941365207876,-0.1894404016128613,-0.289863822705644,0.9256774319707795,0.2926797330513544,-0.8225696817638328,-0.49859030026664175,-0.5419218686991395,1.1353567494411485,0.3955765114184183,-0.29114294872068325,-0.000970261081207982,0.45372860144413774,0.6364307027842664,0.011730985631572035,0.18944748614114273,-0.0011807333786971153,0.37799881160473126,1.2522655677485284,-0.03759885589696049,-0.42161082665283056,-0.09958591135392633,-0.3572265349062529,1.3617793432145724,0.8130082100192548,-0.6301941365207876,-0.1894404016128613,-0.289863822705644,0.9256774319707795,0.2926797330513544,-0.8225696817638328,-0.49859030026664175,-0.5419218686991395,1.1353567494411485,0.3955765114184183,-0.29114294872068325,-0.000970261081207982,0.45372860144413774,0.6364307027842664,0.011730985631572035,0.18944748614114273,-0.0011807333786971153,0.37799881160473126,1.2522655677485284,-0.03759885589696049,-0.42161082665283056,-0.09958591135392633,-0.3572265349062529,1.3617793432145724,0.8130082100192548,-0.6301941365207876,-0.1894404016128613,-0.289863822705644,0.9256774319707795,0.2926797330513544,-0.8225696817638328,-0.49859030026664175,-0.5419218686991395,1.1353567494411485,0.3955765114184183,-0.29114294872068325,-0.000970261081207982,0.45372860144413774,0.6364307027842664,0.011730985631572035,0.18944748614114273,-0.0011807333786971153,0.37799881160473126,1.2522655677485284,-0.03759885589696049,-0.42161082665283056,-0.09958591135392633,-0.3572265349062529,1.3617793432145724,0.8130082100192548,-0.6301941365207876,-0.1894404016128613,-0.289863822705644,0.9256774319707795,0.2926797330513544,-0.8225696817638328,-0.49859030026664175,-0.5419218686991395,1.1353567494411485,0.3955765114184183,-0.29114294872068325,-0.000970261081207982,0.45372860144413774,0.6364307027842664,0.011730985631572035,0.18944748614114273,-0.0011807333786971153,0.37799881160473126,1.2522655677485284,-0.03759885589696049,-0.42161082665283056,-0.09958591135392633,-0.3572265349062529,1.3617793432145724,0.8130082100192548,-0.6301941365207876,-0.1894404016128613,-0.289863822705644,0.9256774319707795,0.2926797330513544,-0.8225696817638328,-0.49859030026664175,-0.5419218686991395,1.1353567494411485,0.3955765114184183,-0.29114294872068325,-0.000970261081207982,0.45372860144413774,0.6364307027842664,0.011730985631572035,0.18944748614114273,-0.0011807333786971153,0.37799881160473126,1.2522655677485284,-0.03759885589696049,-0.42161082665283056,-0.09958591135392633,-0.3572265349062529,1.3617793432145724,0.8130082100192548,-0.6301941365207876,-0.1894404016128613,-0.289863822705644,0.9256774319707795,0.2926797330513544,-0.8225696817638328,-0.49859030026664175,-0.5419218686991395,1.1353567494411485,0.3955765114184183,-0.29114294872068325,-0.000970261081207982,0.45372860144413774,0.6364307027842664,0.011730985631572035,0.18944748614114273,-0.0011807333786971153],[-0.6621606214449091,0.49299802227523476,0.18570355483924839,0.4887223603601775,0.033052545968475185,-0.18546676751296887,0.643524270961826,-0.6020193960538,0.8388969856070351,-0.40227722314320247,0.43688513351003905,1.0439595784106495,0.4007110637571347,0.42286080899715145,-0.15783999218332392,-0.1673817691450711,0.8370377669029022,-0.7027440885126147,-0.23958472819667384,-0.7825343245565349,0.35104659484291306,0.9917432535808383,-0.26852893646603415,0.40680394335972775,-0.5684563452414885,0.4112739424051714,-0.90413111223705,0.3079006567535272,-0.03852400966370114,0.23519383173078562,0.5260273454581244,-0.43120551632699006,0.10655816804531958,-0.6850418500229484,0.37702361219943975,0.6399833542792008,-0.8797016192455415,0.08694323908050088,0.20576344635036573,0.41772998118093674,0.7982657580043153,-1.1311764484148288,0.1775474021519786,0.23900848661810017,0.3071912254760575,0.06492532963928249,0.08052384123857911,0.3945409044479043,0.4540800844040604,0.49289685460904703,0.4112739424051714,-0.90413111223705,0.3079006567535272,-0.03852400966370114,0.23519383173078562,0.5260273454581244,-0.43120551632699006,0.10655816804531958,-0.6850418500229484,0.37702361219943975,0.6399833542792008,-0.8797016192455415,0.08694323908050088,0.20576344635036573,0.41772998118093674,0.7982657580043153,-1.1311764484148288,0.1775474021519786,0.23900848661810017,0.3071912254760575,0.06492532963928249,0.08052384123857911,0.3945409044479043,0.4540800844040604,0.49289685460904703,0.4112739424051714,-0.90413111223705,0.3079006567535272,-0.03852400966370114,0.23519383173078562,0.5260273454581244,-0.43120551632699006,0.10655816804531958,-0.6850418500229484,0.37702361219943975,0.6399833542792008,-0.8797016192455415,0.08694323908050088,0.20576344635036573,0.41772998118093674,0.7982657580043153,-1.1311764484148288,0.1775474021519786,0.23900848661810017,0.3071912254760575,0.06492532963928249,0.08052384123857911,0.3945409044479043,0.4540800844040604,0.49289685460904703,0.4112739424051714,-0.90413111223705,0.3079006567535272,-0.03852400966370114,0.23519383173078562,0.5260273454581244,-0.43120551632699006,0.10655816804531958,-0.6850418500229484,0.37702361219943975,0.6399833542792008,-0.8797016192455415,0.08694323908050088,0.20576344635036573,0.41772998118093674,0.7982657580043153,-1.1311764484148288,0.1775474021519786,0.23900848661810017,0.3071912254760575,0.06492532963928249,0.08052384123857911,0.3945409044479043,0.4540800844040604,0.49289685460904703,0.4112739424051714,-0.90413111223705,0.3079006567535272,-0.03852400966370114,0.23519383173078562,0.5260273454581244,-0.43120551632699006,0.10655816804531958,-0.6850418500229484,0.37702361219943975,0.6399833542792008,-0.8797016192455415,0.08694323908050088,0.20576344635036573,0.41772998118093674,0.7982657580043153,-1.1311764484148288,0.1775474021519786,0.23900848661810017,0.3071912254760575,0.06492532963928249,0.08052384123857911,0.3945409044479043,0.4540800844040604,0.49289685460904703,0.4112739424051714,-0.90413111223705,0.3079006567535272,-0.03852400966370114,0.23519383173078562,0.5260273454581244,-0.43120551632699006,0.10655816804531958,-0.6850418500229484,0.37702361219943975,0.6399833542792008,-0.8797016192455415,0.08694323908050088,0.20576344635036573,0.41772998118093674,0.7982657580043153,-1.1311764484148288,0.1775474021519786,0.23900848661810017,0.3071912254760575,0.06492532963928249,0.08052384123857911,0.3945409044479043,0.4540800844040604,0.49289685460904703,0.4112739424051714,-0.90413111223705,0.3079006567535272,-0.03852400966370114,0.23519383173078562,0.5260273454581244,-0.43120551632699006,0.10655816804531958,-0.6850418500229484,0.37702361219943975,0.6399833542792008,-0.8797016192455415,0.08694323908050088,0.20576344635036573,0.41772998118093674,0.7982657580043153,-1.1311764484148288,0.1775474021519786,0.23900848661810017,0.3071912254760575,0.06492532963928249,0.08052384123857911,0.3945409044479043,0.4540800844040604,0.49289685460904703,0.4112739424051714,-0.90413111223705,0.3079006567535272,-0.03852400966370114,0.23519383173078562,0.5260273454581244,-0.43120551632699006,0.10655816804531958,-0.6850418500229484,0.37702361219943975,0.6399833542792008,-0.8797016192455415,0.08694323908050088,0.20576344635036573,0.41772998118093674,0.7982657580043153,-1.1311764484148288,0.1775474021519786,0.23900848661810017,0.3071912254760575,0.06492532963928249,0.08052384123857911,0.3945409044479043,0.4540800844040604,0.49289685460904703,0.4112739424051714,-0.90413111223705,0.3079006567535272,-0.03852400966370114,0.23519383173078562,0.5260273454581244,-0.43120551632699006,0.10655816804531958,-0.6850418500229484,0.37702361219943975,0.6399833542792008,-0.8797016192455415,0.08694323908050088,0.20576344635036573,0.41772998118093674,0.7982657580043153,-1.1311764484148288,0.1775474021519786,0.23900848661810017,0.3071912254760575,0.06492532963928249,0.08052384123857911,0.3945409044479043,0.4540800844040604,0.49289685460904703,0.4112739424051714,-0.90413111223705,0.3079006567535272,-0.03852400966370114,0.23519383173078562,0.5260273454581244,-0.43120551632699006,0.10655816804531958,-0.6850418500229484,0.37702361219943975,0.6399833542792008,-0.8797016192455415,0.08694323908050088,0.20576344635036573,0.41772998118093674,0.7982657580043153,-1.1311764484148288,0.1775474021519786,0.23900848661810017,0.3071912254760575,0.06492532963928249,0.08052384123857911,0.3945409044479043,0.4540800844040604,0.49289685460904703,0.4112739424051714,-0.90413111223705,0.3079006567535272,-0.03852400966370114,0.23519383173078562,0.5260273454581244,-0.43120551632699006,0.10655816804531958,-0.6850418500229484,0.37702361219943975,0.6399833542792008,-0.8797016192455415,0.08694323908050088,0.20576344635036573,0.41772998118093674,0.7982657580043153,-1.1311764484148288,0.1775474021519786,0.23900848661810017,0.3071912254760575,0.06492532963928249,0.08052384123857911,0.3945409044479043,0.4540800844040604,0.49289685460904703,0.4112739424051714,-0.90413111223705,0.3079006567535272,-0.03852400966370114,0.23519383173078562,0.5260273454581244,-0.43120551632699006,0.10655816804531958,-0.6850418500229484,0.37702361219943975,0.6399833542792008,-0.8797016192455415,0.08694323908050088,0.20576344635036573,0.41772998118093674,0.7982657580043153,-1.1311764484148288,0.1775474021519786,0.23900848661810017,0.3071912254760575,0.06492532963928249,0.08052384123857911,0.3945409044479043,0.4540800844040604,0.49289685460904703,0.4112739424051714,-0.90413111223705,0.3079006567535272,-0.03852400966370114,0.23519383173078562,0.5260273454581244,-0.43120551632699006,0.10655816804531958,-0.6850418500229484,0.37702361219943975,0.6399833542792008,-0.8797016192455415,0.08694323908050088,0.20576344635036573,0.41772998118093674,0.7982657580043153,-1.1311764484148288,0.1775474021519786,0.23900848661810017,0.3071912254760575,0.06492532963928249,0.08052384123857911,0.3945409044479043,0.4540800844040604,0.49289685460904703,0.4112739424051714,-0.90413111223705,0.3079006567535272,-0.03852400966370114,0.23519383173078562,0.5260273454581244,-0.43120551632699006,0.10655816804531958,-0.6850418500229484,0.37702361219943975,0.6399833542792008,-0.8797016192455415,0.08694323908050088,0.20576344635036573,0.41772998118093674,0.7982657580043153,-1.1311764484148288,0.1775474021519786,0.23900848661810017,0.3071912254760575,0.06492532963928249,0.08052384123857911,0.3945409044479043,0.4540800844040604,0.49289685460904703,0.4112739424051714,-0.90413111223705,0.3079006567535272,-0.03852400966370114,0.23519383173078562,0.5260273454581244,-0.43120551632699006,0.10655816804531958,-0.6850418500229484,0.37702361219943975,0.6399833542792008,-0.8797016192455415,0.08694323908050088,0.20576344635036573,0.41772998118093674,0.7982657580043153,-1.1311764484148288,0.1775474021519786,0.23900848661810017,0.3071912254760575,0.06492532963928249,0.08052384123857911,0.3945409044479043,0.4540800844040604,0.49289685460904703,0.4112739424051714,-0.90413111223705,0.3079006567535272,-0.03852400966370114,0.23519383173078562,0.5260273454581244,-0.43120551632699006,0.10655816804531958,-0.6850418500229484,0.37702361219943975,0.6399833542792008,-0.8797016192455415,0.08694323908050088,0.20576344635036573,0.41772998118093674,0.7982657580043153,-1.1311764484148288,0.1775474021519786,0.23900848661810017,0.3071912254760575,0.06492532963928249,0.08052384123857911,0.3945409044479043,0.4540800844040604,0.49289685460904703,0.4112739424051714,-0.90413111223705,0.3079006567535272,-0.03852400966370114,0.23519383173078562,0.5260273454581244,-0.43120551632699006,0.10655816804531958,-0.6850418500229484,0.37702361219943975,0.6399833542792008,-0.8797016192455415,0.08694323908050088,0.20576344635036573,0.41772998118093674,0.7982657580043153,-1.1311764484148288,0.1775474021519786,0.23900848661810017,0.3071912254760575,0.06492532963928249,0.08052384123857911,0.3945409044479043,0.4540800844040604,0.49289685460904703],[-0.04461331194733347,-0.48813753699313694,0.2839288844503575,0.05956027324049522,0.7425125668529103,0.5391790698728541,0.020289904865418044,0.3506617795848231,-0.9552309759076262,0.4684721514238483,0.6299015606650131,-1.2987709255146338,0.16816076516050407,0.35425320475558814,0.49544383278475096,0.9052795406076954,-1.9210624527008326,0.5824537067345974,0.10885531206790525,0.18515266483568485,0.12187948950689655,-1.0032493880912632,0.20145209995421492,0.642112705898919,0.13305904713811742,-0.21871969846504813,-0.018961214982213224,0.3031902874248013,0.1609337001130149,0.015233666887944903,-0.2783512868015517,-0.09542541504197,0.3503091292708989,0.27949845154041464,0.2605802430915802,0.35095817673089963,0.15815292486406063,-0.22349564860576648,0.2668244742496507,-0.018590658111124984,0.02509276052870486,-0.321961221756904,-0.1623671437617063,1.0233972196654306,-0.06319724773872148,0.1276767123429279,0.17064624577639956,-0.315902410316944,0.17393289352503793,-0.47949345077285366,-0.21871969846504813,-0.018961214982213224,0.3031902874248013,0.1609337001130149,0.015233666887944903,-0.2783512868015517,-0.09542541504197,0.3503091292708989,0.27949845154041464,0.2605802430915802,0.35095817673089963,0.15815292486406063,-0.22349564860576648,0.2668244742496507,-0.018590658111124984,0.02509276052870486,-0.321961221756904,-0.1623671437617063,1.0233972196654306,-0.06319724773872148,0.1276767123429279,0.17064624577639956,-0.315902410316944,0.17393289352503793,-0.47949345077285366,-0.21871969846504813,-0.018961214982213224,0.3031902874248013,0.1609337001130149,0.015233666887944903,-0.2783512868015517,-0.09542541504197,0.3503091292708989,0.27949845154041464,0.2605802430915802,0.35095817673089963,0.15815292486406063,-0.22349564860576648,0.2668244742496507,-0.018590658111124984,0.02509276052870486,-0.321961221756904,-0.1623671437617063,1.0233972196654306,-0.06319724773872148,0.1276767123429279,0.17064624577639956,-0.315902410316944,0.17393289352503793,-0.47949345077285366,-0.21871969846504813,-0.018961214982213224,0.3031902874248013,0.1609337001130149,0.015233666887944903,-0.2783512868015517,-0.09542541504197,0.3503091292708989,0.27949845154041464,0.2605802430915802,0.35095817673089963,0.15815292486406063,-0.22349564860576648,0.2668244742496507,-0.018590658111124984,0.02509276052870486,-0.321961221756904,-0.1623671437617063,1.0233972196654306,-0.06319724773872148,0.1276767123429279,0.17064624577639956,-0.315902410316944,0.17393289352503793,-0.47949345077285366,-0.21871969846504813,-0.018961214982213224,0.3031902874248013,0.1609337001130149,0.015233666887944903,-0.2783512868015517,-0.09542541504197,0.3503091292708989,0.27949845154041464,0.2605802430915802,0.35095817673089963,0.15815292486406063,-0.22349564860576648,0.2668244742496507,-0.018590658111124984,0.02509276052870486,-0.321961221756904,-0.1623671437617063,1.0233972196654306,-0.06319724773872148,0.1276767123429279,0.17064624577639956,-0.315902410316944,0.17393289352503793,-0.47949345077285366,-0.21871969846504813,-0.018961214982213224,0.3031902874248013,0.1609337001130149,0.015233666887944903,-0.2783512868015517,-0.09542541504197,0.3503091292708989,0.27949845154041464,0.2605802430915802,0.35095817673089963,0.15815292486406063,-0.22349564860576648,0.2668244742496507,-0.018590658111124984,0.02509276052870486,-0.321961221756904,-0.1623671437617063,1.0233972196654306,-0.06319724773872148,0.1276767123429279,0.17064624577639956,-0.315902410316944,0.17393289352503793,-0.47949345077285366,-0.21871969846504813,-0.018961214982213224,0.3031902874248013,0.1609337001130149,0.015233666887944903,-0.2783512868015517,-0.09542541504197,0.3503091292708989,0.27949845154041464,0.2605802430915802,0.35095817673089963,0.15815292486406063,-0.22349564860576648,0.2668244742496507,-0.018590658111124984,0.02509276052870486,-0.321961221756904,-0.1623671437617063,1.0233972196654306,-0.06319724773872148,0.1276767123429279,0.17064624577639956,-0.315902410316944,0.17393289352503793,-0.47949345077285366,-0.21871969846504813,-0.018961214982213224,0.3031902874248013,0.1609337001130149,0.015233666887944903,-0.2783512868015517,-0.09542541504197,0.3503091292708989,0.27949845154041464,0.2605802430915802,0.35095817673089963,0.15815292486406063,-0.22349564860576648,0.2668244742496507,-0.018590658111124984,0.02509276052870486,-0.321961221756904,-0.1623671437617063,1.0233972196654306,-0.06319724773872148,0.1276767123429279,0.17064624577639956,-0.315902410316944,0.17393289352503793,-0.47949345077285366,-0.21871969846504813,-0.018961214982213224,0.3031902874248013,0.1609337001130149,0.015233666887944903,-0.2783512868015517,-0.09542541504197,0.3503091292708989,0.27949845154041464,0.2605802430915802,0.35095817673089963,0.15815292486406063,-0.22349564860576648,0.2668244742496507,-0.018590658111124984,0.02509276052870486,-0.321961221756904,-0.1623671437617063,1.0233972196654306,-0.06319724773872148,0.1276767123429279,0.17064624577639956,-0.315902410316944,0.17393289352503793,-0.47949345077285366,-0.21871969846504813,-0.018961214982213224,0.3031902874248013,0.1609337001130149,0.015233666887944903,-0.2783512868015517,-0.09542541504197,0.3503091292708989,0.27949845154041464,0.2605802430915802,0.35095817673089963,0.15815292486406063,-0.22349564860576648,0.2668244742496507,-0.018590658111124984,0.02509276052870486,-0.321961221756904,-0.1623671437617063,1.0233972196654306,-0.06319724773872148,0.1276767123429279,0.17064624577639956,-0.315902410316944,0.17393289352503793,-0.47949345077285366,-0.21871969846504813,-0.018961214982213224,0.3031902874248013,0.1609337001130149,0.015233666887944903,-0.2783512868015517,-0.09542541504197,0.3503091292708989,0.27949845154041464,0.2605802430915802,0.35095817673089963,0.15815292486406063,-0.22349564860576648,0.2668244742496507,-0.018590658111124984,0.02509276052870486,-0.321961221756904,-0.1623671437617063,1.0233972196654306,-0.06319724773872148,0.1276767123429279,0.17064624577639956,-0.315902410316944,0.17393289352503793,-0.47949345077285366,-0.21871969846504813,-0.018961214982213224,0.3031902874248013,0.1609337001130149,0.015233666887944903,-0.2783512868015517,-0.09542541504197,0.3503091292708989,0.27949845154041464,0.2605802430915802,0.35095817673089963,0.15815292486406063,-0.22349564860576648,0.2668244742496507,-0.018590658111124984,0.02509276052870486,-0.321961221756904,-0.1623671437617063,1.0233972196654306,-0.06319724773872148,0.1276767123429279,0.17064624577639956,-0.315902410316944,0.17393289352503793,-0.47949345077285366,-0.21871969846504813,-0.018961214982213224,0.3031902874248013,0.1609337001130149,0.015233666887944903,-0.2783512868015517,-0.09542541504197,0.3503091292708989,0.27949845154041464,0.2605802430915802,0.35095817673089963,0.15815292486406063,-0.22349564860576648,0.2668244742496507,-0.018590658111124984,0.02509276052870486,-0.321961221756904,-0.1623671437617063,1.0233972196654306,-0.06319724773872148,0.1276767123429279,0.17064624577639956,-0.315902410316944,0.17393289352503793,-0.47949345077285366,-0.21871969846504813,-0.018961214982213224,0.3031902874248013,0.1609337001130149,0.015233666887944903,-0.2783512868015517,-0.09542541504197,0.3503091292708989,0.27949845154041464,0.2605802430915802,0.35095817673089963,0.15815292486406063,-0.22349564860576648,0.2668244742496507,-0.018590658111124984,0.02509276052870486,-0.321961221756904,-0.1623671437617063,1.0233972196654306,-0.06319724773872148,0.1276767123429279,0.17064624577639956,-0.315902410316944,0.17393289352503793,-0.47949345077285366,-0.21871969846504813,-0.018961214982213224,0.3031902874248013,0.1609337001130149,0.015233666887944903,-0.2783512868015517,-0.09542541504197,0.3503091292708989,0.27949845154041464,0.2605802430915802,0.35095817673089963,0.15815292486406063,-0.22349564860576648,0.2668244742496507,-0.018590658111124984,0.02509276052870486,-0.321961221756904,-0.1623671437617063,1.0233972196654306,-0.06319724773872148,0.1276767123429279,0.17064624577639956,-0.315902410316944,0.17393289352503793,-0.47949345077285366,-0.21871969846504813,-0.018961214982213224,0.3031902874248013,0.1609337001130149,0.015233666887944903,-0.2783512868015517,-0.09542541504197,0.3503091292708989,0.27949845154041464,0.2605802430915802,0.35095817673089963,0.15815292486406063,-0.22349564860576648,0.2668244742496507,-0.018590658111124984,0.02509276052870486,-0.321961221756904,-0.1623671437617063,1.0233972196654306,-0.06319724773872148,0.1276767123429279,0.17064624577639956,-0.315902410316944,0.17393289352503793,-0.47949345077285366,-0.21871969846504813,-0.018961214982213224,0.3031902874248013,0.1609337001130149,0.015233666887944903,-0.2783512868015517,-0.09542541504197,0.3503091292708989,0.27949845154041464,0.2605802430915802,0.35095817673089963,0.15815292486406063,-0.22349564860576648,0.2668244742496507,-0.018590658111124984,0.02509276052870486,-0.321961221756904,-0.1623671437617063,1.0233972196654306,-0.06319724773872148,0.1276767123429279,0.17064624577639956,-0.315902410316944,0.17393289352503793,-0.47949345077285366],[-0.11178785309077696,0.7214046450012656,0.012326751585834591,-0.15254528581152846,0.22921152727639307,-0.15865958460551266,0.4755310263066911,0.20436048150359604,-0.38954617474426284,-0.025983473806206973,-0.07000063146222504,-0.015456773021888415,0.22402529696453372,-0.17271177029982615,0.04203372162860919,0.23842462115396712,-0.4690749963789521,0.26310873060190165,0.12356499031807718,0.0499978432530609,0.2554155680116907,-0.4730530114285964,-0.03616777260167558,0.27326505219812847,-0.14748543522287957,-0.1312950963984561,0.35998290648056747,0.05544746218489513,0.49526524104733244,0.05783344317300085,-0.16259871947387716,0.6622648811819354,-0.5774468469168207,0.2643110843563199,-0.5095019232786953,0.08340060180343462,0.8234473925868545,0.03370741449162022,0.6844030544257194,-0.3148788031330483,-0.17169017552646848,0.9146207880028979,-0.34722001862976276,0.40395222848863915,-0.5226881617572904,0.2666648176455459,0.848527339960242,-0.11388607207517648,0.4549177343357293,-0.3310079165289611,-0.1312950963984561,0.35998290648056747,0.05544746218489513,0.49526524104733244,0.05783344317300085,-0.16259871947387716,0.6622648811819354,-0.5774468469168207,0.2643110843563199,-0.5095019232786953,0.08340060180343462,0.8234473925868545,0.03370741449162022,0.6844030544257194,-0.3148788031330483,-0.17169017552646848,0.9146207880028979,-0.34722001862976276,0.40395222848863915,-0.5226881617572904,0.2666648176455459,0.848527339960242,-0.11388607207517648,0.4549177343357293,-0.3310079165289611,-0.1312950963984561,0.35998290648056747,0.05544746218489513,0.49526524104733244,0.05783344317300085,-0.16259871947387716,0.6622648811819354,-0.5774468469168207,0.2643110843563199,-0.5095019232786953,0.08340060180343462,0.8234473925868545,0.03370741449162022,0.6844030544257194,-0.3148788031330483,-0.17169017552646848,0.9146207880028979,-0.34722001862976276,0.40395222848863915,-0.5226881617572904,0.2666648176455459,0.848527339960242,-0.11388607207517648,0.4549177343357293,-0.3310079165289611,-0.1312950963984561,0.35998290648056747,0.05544746218489513,0.49526524104733244,0.05783344317300085,-0.16259871947387716,0.6622648811819354,-0.5774468469168207,0.2643110843563199,-0.5095019232786953,0.08340060180343462,0.8234473925868545,0.03370741449162022,0.6844030544257194,-0.3148788031330483,-0.17169017552646848,0.9146207880028979,-0.34722001862976276,0.40395222848863915,-0.5226881617572904,0.2666648176455459,0.848527339960242,-0.11388607207517648,0.4549177343357293,-0.3310079165289611,-0.1312950963984561,0.35998290648056747,0.05544746218489513,0.49526524104733244,0.05783344317300085,-0.16259871947387716,0.6622648811819354,-0.5774468469168207,0.2643110843563199,-0.5095019232786953,0.08340060180343462,0.8234473925868545,0.03370741449162022,0.6844030544257194,-0.3148788031330483,-0.17169017552646848,0.9146207880028979,-0.34722001862976276,0.40395222848863915,-0.5226881617572904,0.2666648176455459,0.848527339960242,-0.11388607207517648,0.4549177343357293,-0.3310079165289611,-0.1312950963984561,0.35998290648056747,0.05544746218489513,0.49526524104733244,0.05783344317300085,-0.16259871947387716,0.6622648811819354,-0.5774468469168207,0.2643110843563199,-0.5095019232786953,0.08340060180343462,0.8234473925868545,0.03370741449162022,0.6844030544257194,-0.3148788031330483,-0.17169017552646848,0.9146207880028979,-0.34722001862976276,0.40395222848863915,-0.5226881617572904,0.2666648176455459,0.848527339960242,-0.11388607207517648,0.4549177343357293,-0.3310079165289611,-0.1312950963984561,0.35998290648056747,0.05544746218489513,0.49526524104733244,0.05783344317300085,-0.16259871947387716,0.6622648811819354,-0.5774468469168207,0.2643110843563199,-0.5095019232786953,0.08340060180343462,0.8234473925868545,0.03370741449162022,0.6844030544257194,-0.3148788031330483,-0.17169017552646848,0.9146207880028979,-0.34722001862976276,0.40395222848863915,-0.5226881617572904,0.2666648176455459,0.848527339960242,-0.11388607207517648,0.4549177343357293,-0.3310079165289611,-0.1312950963984561,0.35998290648056747,0.05544746218489513,0.49526524104733244,0.05783344317300085,-0.16259871947387716,0.6622648811819354,-0.5774468469168207,0.2643110843563199,-0.5095019232786953,0.08340060180343462,0.8234473925868545,0.03370741449162022,0.6844030544257194,-0.3148788031330483,-0.17169017552646848,0.9146207880028979,-0.34722001862976276,0.40395222848863915,-0.5226881617572904,0.2666648176455459,0.848527339960242,-0.11388607207517648,0.4549177343357293,-0.3310079165289611,-0.1312950963984561,0.35998290648056747,0.05544746218489513,0.49526524104733244,0.05783344317300085,-0.16259871947387716,0.6622648811819354,-0.5774468469168207,0.2643110843563199,-0.5095019232786953,0.08340060180343462,0.8234473925868545,0.03370741449162022,0.6844030544257194,-0.3148788031330483,-0.17169017552646848,0.9146207880028979,-0.34722001862976276,0.40395222848863915,-0.5226881617572904,0.2666648176455459,0.848527339960242,-0.11388607207517648,0.4549177343357293,-0.3310079165289611,-0.1312950963984561,0.35998290648056747,0.05544746218489513,0.49526524104733244,0.05783344317300085,-0.16259871947387716,0.6622648811819354,-0.5774468469168207,0.2643110843563199,-0.5095019232786953,0.08340060180343462,0.8234473925868545,0.03370741449162022,0.6844030544257194,-0.3148788031330483,-0.17169017552646848,0.9146207880028979,-0.34722001862976276,0.40395222848863915,-0.5226881617572904,0.2666648176455459,0.848527339960242,-0.11388607207517648,0.4549177343357293,-0.3310079165289611,-0.1312950963984561,0.35998290648056747,0.05544746218489513,0.49526524104733244,0.05783344317300085,-0.16259871947387716,0.6622648811819354,-0.5774468469168207,0.2643110843563199,-0.5095019232786953,0.08340060180343462,0.8234473925868545,0.03370741449162022,0.6844030544257194,-0.3148788031330483,-0.17169017552646848,0.9146207880028979,-0.34722001862976276,0.40395222848863915,-0.5226881617572904,0.2666648176455459,0.848527339960242,-0.11388607207517648,0.4549177343357293,-0.3310079165289611,-0.1312950963984561,0.35998290648056747,0.05544746218489513,0.49526524104733244,0.05783344317300085,-0.16259871947387716,0.6622648811819354,-0.5774468469168207,0.2643110843563199,-0.5095019232786953,0.08340060180343462,0.8234473925868545,0.03370741449162022,0.6844030544257194,-0.3148788031330483,-0.17169017552646848,0.9146207880028979,-0.34722001862976276,0.40395222848863915,-0.5226881617572904,0.2666648176455459,0.848527339960242,-0.11388607207517648,0.4549177343357293,-0.3310079165289611,-0.1312950963984561,0.35998290648056747,0.05544746218489513,0.49526524104733244,0.05783344317300085,-0.16259871947387716,0.6622648811819354,-0.5774468469168207,0.2643110843563199,-0.5095019232786953,0.08340060180343462,0.8234473925868545,0.03370741449162022,0.6844030544257194,-0.3148788031330483,-0.17169017552646848,0.9146207880028979,-0.34722001862976276,0.40395222848863915,-0.5226881617572904,0.2666648176455459,0.848527339960242,-0.11388607207517648,0.4549177343357293,-0.3310079165289611,-0.1312950963984561,0.35998290648056747,0.05544746218489513,0.49526524104733244,0.05783344317300085,-0.16259871947387716,0.6622648811819354,-0.5774468469168207,0.2643110843563199,-0.5095019232786953,0.08340060180343462,0.8234473925868545,0.03370741449162022,0.6844030544257194,-0.3148788031330483,-0.17169017552646848,0.9146207880028979,-0.34722001862976276,0.40395222848863915,-0.5226881617572904,0.2666648176455459,0.848527339960242,-0.11388607207517648,0.4549177343357293,-0.3310079165289611,-0.1312950963984561,0.35998290648056747,0.05544746218489513,0.49526524104733244,0.05783344317300085,-0.16259871947387716,0.6622648811819354,-0.5774468469168207,0.2643110843563199,-0.5095019232786953,0.08340060180343462,0.8234473925868545,0.03370741449162022,0.6844030544257194,-0.3148788031330483,-0.17169017552646848,0.9146207880028979,-0.34722001862976276,0.40395222848863915,-0.5226881617572904,0.2666648176455459,0.848527339960242,-0.11388607207517648,0.4549177343357293,-0.3310079165289611,-0.1312950963984561,0.35998290648056747,0.05544746218489513,0.49526524104733244,0.05783344317300085,-0.16259871947387716,0.6622648811819354,-0.5774468469168207,0.2643110843563199,-0.5095019232786953,0.08340060180343462,0.8234473925868545,0.03370741449162022,0.6844030544257194,-0.3148788031330483,-0.17169017552646848,0.9146207880028979,-0.34722001862976276,0.40395222848863915,-0.5226881617572904,0.2666648176455459,0.848527339960242,-0.11388607207517648,0.4549177343357293,-0.3310079165289611,-0.1312950963984561,0.35998290648056747,0.05544746218489513,0.49526524104733244,0.05783344317300085,-0.16259871947387716,0.6622648811819354,-0.5774468469168207,0.2643110843563199,-0.5095019232786953,0.08340060180343462,0.8234473925868545,0.03370741449162022,0.6844030544257194,-0.3148788031330483,-0.17169017552646848,0.9146207880028979,-0.34722001862976276,0.40395222848863915,-0.5226881617572904,0.2666648176455459,0.848527339960242,-0.11388607207517648,0.4549177343357293,-0.3310079165289611],[0.05451291785062241,0.23141811621105973,-0.014134668110858041,0.6036441037486486,-0.04992260663266111,0.2927050506479057,1.0610962886047477,-0.43091782634809433,0.2916432450098914,-0.5268335703423881,0.3616891274047497,0.6230470639559234,-0.501885672140247,0.7547534086283657,-0.4985120442321308,0.2654241971510846,0.8358630537970456,-0.19071254750552852,0.4246718180473183,-0.6658575796088659,0.36760029944642764,0.8532893057051864,-0.3804095318347199,0.4767414541186686,-0.6950886616412955,-0.19043760928432918,1.0500847800237008,-0.18962639844023407,-0.44655855101013653,-0.21392701905573255,-0.19563523638620353,0.4217022656190537,0.03745633217668857,0.5367423381085815,-0.046124786945601244,-0.10268439769911139,1.151838331058756,0.39842903295431825,-0.5026753795367301,0.16127511114918064,-0.10415222433495919,1.2119519290456304,0.07685301937998444,-0.8057085792503683,0.18923053251238678,0.24862015578281002,-0.13586951655296856,0.3348170319414665,-0.5771975980925816,0.20128148418508066,-0.19043760928432918,1.0500847800237008,-0.18962639844023407,-0.44655855101013653,-0.21392701905573255,-0.19563523638620353,0.4217022656190537,0.03745633217668857,0.5367423381085815,-0.046124786945601244,-0.10268439769911139,1.151838331058756,0.39842903295431825,-0.5026753795367301,0.16127511114918064,-0.10415222433495919,1.2119519290456304,0.07685301937998444,-0.8057085792503683,0.18923053251238678,0.24862015578281002,-0.13586951655296856,0.3348170319414665,-0.5771975980925816,0.20128148418508066,-0.19043760928432918,1.0500847800237008,-0.18962639844023407,-0.44655855101013653,-0.21392701905573255,-0.19563523638620353,0.4217022656190537,0.03745633217668857,0.5367423381085815,-0.046124786945601244,-0.10268439769911139,1.151838331058756,0.39842903295431825,-0.5026753795367301,0.16127511114918064,-0.10415222433495919,1.2119519290456304,0.07685301937998444,-0.8057085792503683,0.18923053251238678,0.24862015578281002,-0.13586951655296856,0.3348170319414665,-0.5771975980925816,0.20128148418508066,-0.19043760928432918,1.0500847800237008,-0.18962639844023407,-0.44655855101013653,-0.21392701905573255,-0.19563523638620353,0.4217022656190537,0.03745633217668857,0.5367423381085815,-0.046124786945601244,-0.10268439769911139,1.151838331058756,0.39842903295431825,-0.5026753795367301,0.16127511114918064,-0.10415222433495919,1.2119519290456304,0.07685301937998444,-0.8057085792503683,0.18923053251238678,0.24862015578281002,-0.13586951655296856,0.3348170319414665,-0.5771975980925816,0.20128148418508066,-0.19043760928432918,1.0500847800237008,-0.18962639844023407,-0.44655855101013653,-0.21392701905573255,-0.19563523638620353,0.4217022656190537,0.03745633217668857,0.5367423381085815,-0.046124786945601244,-0.10268439769911139,1.151838331058756,0.39842903295431825,-0.5026753795367301,0.16127511114918064,-0.10415222433495919,1.2119519290456304,0.07685301937998444,-0.8057085792503683,0.18923053251238678,0.24862015578281002,-0.13586951655296856,0.3348170319414665,-0.5771975980925816,0.20128148418508066,-0.19043760928432918,1.0500847800237008,-0.18962639844023407,-0.44655855101013653,-0.21392701905573255,-0.19563523638620353,0.4217022656190537,0.03745633217668857,0.5367423381085815,-0.046124786945601244,-0.10268439769911139,1.151838331058756,0.39842903295431825,-0.5026753795367301,0.16127511114918064,-0.10415222433495919,1.2119519290456304,0.07685301937998444,-0.8057085792503683,0.18923053251238678,0.24862015578281002,-0.13586951655296856,0.3348170319414665,-0.5771975980925816,0.20128148418508066,-0.19043760928432918,1.0500847800237008,-0.18962639844023407,-0.44655855101013653,-0.21392701905573255,-0.19563523638620353,0.4217022656190537,0.03745633217668857,0.5367423381085815,-0.046124786945601244,-0.10268439769911139,1.151838331058756,0.39842903295431825,-0.5026753795367301,0.16127511114918064,-0.10415222433495919,1.2119519290456304,0.07685301937998444,-0.8057085792503683,0.18923053251238678,0.24862015578281002,-0.13586951655296856,0.3348170319414665,-0.5771975980925816,0.20128148418508066,-0.19043760928432918,1.0500847800237008,-0.18962639844023407,-0.44655855101013653,-0.21392701905573255,-0.19563523638620353,0.4217022656190537,0.03745633217668857,0.5367423381085815,-0.046124786945601244,-0.10268439769911139,1.151838331058756,0.39842903295431825,-0.5026753795367301,0.16127511114918064,-0.10415222433495919,1.2119519290456304,0.07685301937998444,-0.8057085792503683,0.18923053251238678,0.24862015578281002,-0.13586951655296856,0.3348170319414665,-0.5771975980925816,0.20128148418508066,-0.19043760928432918,1.0500847800237008,-0.18962639844023407,-0.44655855101013653,-0.21392701905573255,-0.19563523638620353,0.4217022656190537,0.03745633217668857,0.5367423381085815,-0.046124786945601244,-0.10268439769911139,1.151838331058756,0.39842903295431825,-0.5026753795367301,0.16127511114918064,-0.10415222433495919,1.2119519290456304,0.07685301937998444,-0.8057085792503683,0.18923053251238678,0.24862015578281002,-0.13586951655296856,0.3348170319414665,-0.5771975980925816,0.20128148418508066,-0.19043760928432918,1.0500847800237008,-0.18962639844023407,-0.44655855101013653,-0.21392701905573255,-0.19563523638620353,0.4217022656190537,0.03745633217668857,0.5367423381085815,-0.046124786945601244,-0.10268439769911139,1.151838331058756,0.39842903295431825,-0.5026753795367301,0.16127511114918064,-0.10415222433495919,1.2119519290456304,0.07685301937998444,-0.8057085792503683,0.18923053251238678,0.24862015578281002,-0.13586951655296856,0.3348170319414665,-0.5771975980925816,0.20128148418508066,-0.19043760928432918,1.0500847800237008,-0.18962639844023407,-0.44655855101013653,-0.21392701905573255,-0.19563523638620353,0.4217022656190537,0.03745633217668857,0.5367423381085815,-0.046124786945601244,-0.10268439769911139,1.151838331058756,0.39842903295431825,-0.5026753795367301,0.16127511114918064,-0.10415222433495919,1.2119519290456304,0.07685301937998444,-0.8057085792503683,0.18923053251238678,0.24862015578281002,-0.13586951655296856,0.3348170319414665,-0.5771975980925816,0.20128148418508066,-0.19043760928432918,1.0500847800237008,-0.18962639844023407,-0.44655855101013653,-0.21392701905573255,-0.19563523638620353,0.4217022656190537,0.03745633217668857,0.5367423381085815,-0.046124786945601244,-0.10268439769911139,1.151838331058756,0.39842903295431825,-0.5026753795367301,0.16127511114918064,-0.10415222433495919,1.2119519290456304,0.07685301937998444,-0.8057085792503683,0.18923053251238678,0.24862015578281002,-0.13586951655296856,0.3348170319414665,-0.5771975980925816,0.20128148418508066,-0.19043760928432918,1.0500847800237008,-0.18962639844023407,-0.44655855101013653,-0.21392701905573255,-0.19563523638620353,0.4217022656190537,0.03745633217668857,0.5367423381085815,-0.046124786945601244,-0.10268439769911139,1.151838331058756,0.39842903295431825,-0.5026753795367301,0.16127511114918064,-0.10415222433495919,1.2119519290456304,0.07685301937998444,-0.8057085792503683,0.18923053251238678,0.24862015578281002,-0.13586951655296856,0.3348170319414665,-0.5771975980925816,0.20128148418508066,-0.19043760928432918,1.0500847800237008,-0.18962639844023407,-0.44655855101013653,-0.21392701905573255,-0.19563523638620353,0.4217022656190537,0.03745633217668857,0.5367423381085815,-0.046124786945601244,-0.10268439769911139,1.151838331058756,0.39842903295431825,-0.5026753795367301,0.16127511114918064,-0.10415222433495919,1.2119519290456304,0.07685301937998444,-0.8057085792503683,0.18923053251238678,0.24862015578281002,-0.13586951655296856,0.3348170319414665,-0.5771975980925816,0.20128148418508066,-0.19043760928432918,1.0500847800237008,-0.18962639844023407,-0.44655855101013653,-0.21392701905573255,-0.19563523638620353,0.4217022656190537,0.03745633217668857,0.5367423381085815,-0.046124786945601244,-0.10268439769911139,1.151838331058756,0.39842903295431825,-0.5026753795367301,0.16127511114918064,-0.10415222433495919,1.2119519290456304,0.07685301937998444,-0.8057085792503683,0.18923053251238678,0.24862015578281002,-0.13586951655296856,0.3348170319414665,-0.5771975980925816,0.20128148418508066,-0.19043760928432918,1.0500847800237008,-0.18962639844023407,-0.44655855101013653,-0.21392701905573255,-0.19563523638620353,0.4217022656190537,0.03745633217668857,0.5367423381085815,-0.046124786945601244,-0.10268439769911139,1.151838331058756,0.39842903295431825,-0.5026753795367301,0.16127511114918064,-0.10415222433495919,1.2119519290456304,0.07685301937998444,-0.8057085792503683,0.18923053251238678,0.24862015578281002,-0.13586951655296856,0.3348170319414665,-0.5771975980925816,0.20128148418508066,-0.19043760928432918,1.0500847800237008,-0.18962639844023407,-0.44655855101013653,-0.21392701905573255,-0.19563523638620353,0.4217022656190537,0.03745633217668857,0.5367423381085815,-0.046124786945601244,-0.10268439769911139,1.151838331058756,0.39842903295431825,-0.5026753795367301,0.16127511114918064,-0.10415222433495919,1.2119519290456304,0.07685301937998444,-0.8057085792503683,0.18923053251238678,0.24862015578281002,-0.13586951655296856,0.3348170319414665,-0.5771975980925816,0.20128148418508066],[-0.262525057686958,0.010979473885520596,-0.13344939786651405,-0.05695214327609511,-0.1746643735732093,-0.5505039146806141,-0.9837554492247151,0.12198988492670194,0.825815554407053,0.3265672360364088,0.5480518243059549,-0.47653158348556923,-0.16041789685149183,-0.261973207912461,0.4146581548041004,-0.005698712322954297,1.014035265291001,0.8274620865442764,-0.0889458831329441,0.021704982907767827,-0.39415735418123843,0.08352674863546859,-0.2381418988262028,-0.34839835085064175,-0.1822410748526957,0.7064506052698617,-0.8118062643308336,0.23431148146055183,-0.012136375967181319,-0.17364656204128442,0.304971453346222,-0.6416300888277482,0.029439684232275817,0.048608175929546936,0.25278123571547395,0.5057317581310141,-0.20362166454672084,-0.20066818929796948,0.22573287127968145,0.25120378740060406,0.518219412688885,-0.3090577734777853,0.12160242160229552,0.6477149239635611,0.26247538298778866,0.01392810838580098,0.6252944236216765,-0.06218293155038794,0.009009880079055555,0.12298780903842707,0.7064506052698617,-0.8118062643308336,0.23431148146055183,-0.012136375967181319,-0.17364656204128442,0.304971453346222,-0.6416300888277482,0.029439684232275817,0.048608175929546936,0.25278123571547395,0.5057317581310141,-0.20362166454672084,-0.20066818929796948,0.22573287127968145,0.25120378740060406,0.518219412688885,-0.3090577734777853,0.12160242160229552,0.6477149239635611,0.26247538298778866,0.01392810838580098,0.6252944236216765,-0.06218293155038794,0.009009880079055555,0.12298780903842707,0.7064506052698617,-0.8118062643308336,0.23431148146055183,-0.012136375967181319,-0.17364656204128442,0.304971453346222,-0.6416300888277482,0.029439684232275817,0.048608175929546936,0.25278123571547395,0.5057317581310141,-0.20362166454672084,-0.20066818929796948,0.22573287127968145,0.25120378740060406,0.518219412688885,-0.3090577734777853,0.12160242160229552,0.6477149239635611,0.26247538298778866,0.01392810838580098,0.6252944236216765,-0.06218293155038794,0.009009880079055555,0.12298780903842707,0.7064506052698617,-0.8118062643308336,0.23431148146055183,-0.012136375967181319,-0.17364656204128442,0.304971453346222,-0.6416300888277482,0.029439684232275817,0.048608175929546936,0.25278123571547395,0.5057317581310141,-0.20362166454672084,-0.20066818929796948,0.22573287127968145,0.25120378740060406,0.518219412688885,-0.3090577734777853,0.12160242160229552,0.6477149239635611,0.26247538298778866,0.01392810838580098,0.6252944236216765,-0.06218293155038794,0.009009880079055555,0.12298780903842707,0.7064506052698617,-0.8118062643308336,0.23431148146055183,-0.012136375967181319,-0.17364656204128442,0.304971453346222,-0.6416300888277482,0.029439684232275817,0.048608175929546936,0.25278123571547395,0.5057317581310141,-0.20362166454672084,-0.20066818929796948,0.22573287127968145,0.25120378740060406,0.518219412688885,-0.3090577734777853,0.12160242160229552,0.6477149239635611,0.26247538298778866,0.01392810838580098,0.6252944236216765,-0.06218293155038794,0.009009880079055555,0.12298780903842707,0.7064506052698617,-0.8118062643308336,0.23431148146055183,-0.012136375967181319,-0.17364656204128442,0.304971453346222,-0.6416300888277482,0.029439684232275817,0.048608175929546936,0.25278123571547395,0.5057317581310141,-0.20362166454672084,-0.20066818929796948,0.22573287127968145,0.25120378740060406,0.518219412688885,-0.3090577734777853,0.12160242160229552,0.6477149239635611,0.26247538298778866,0.01392810838580098,0.6252944236216765,-0.06218293155038794,0.009009880079055555,0.12298780903842707,0.7064506052698617,-0.8118062643308336,0.23431148146055183,-0.012136375967181319,-0.17364656204128442,0.304971453346222,-0.6416300888277482,0.029439684232275817,0.048608175929546936,0.25278123571547395,0.5057317581310141,-0.20362166454672084,-0.20066818929796948,0.22573287127968145,0.25120378740060406,0.518219412688885,-0.3090577734777853,0.12160242160229552,0.6477149239635611,0.26247538298778866,0.01392810838580098,0.6252944236216765,-0.06218293155038794,0.009009880079055555,0.12298780903842707,0.7064506052698617,-0.8118062643308336,0.23431148146055183,-0.012136375967181319,-0.17364656204128442,0.304971453346222,-0.6416300888277482,0.029439684232275817,0.048608175929546936,0.25278123571547395,0.5057317581310141,-0.20362166454672084,-0.20066818929796948,0.22573287127968145,0.25120378740060406,0.518219412688885,-0.3090577734777853,0.12160242160229552,0.6477149239635611,0.26247538298778866,0.01392810838580098,0.6252944236216765,-0.06218293155038794,0.009009880079055555,0.12298780903842707,0.7064506052698617,-0.8118062643308336,0.23431148146055183,-0.012136375967181319,-0.17364656204128442,0.304971453346222,-0.6416300888277482,0.029439684232275817,0.048608175929546936,0.25278123571547395,0.5057317581310141,-0.20362166454672084,-0.20066818929796948,0.22573287127968145,0.25120378740060406,0.518219412688885,-0.3090577734777853,0.12160242160229552,0.6477149239635611,0.26247538298778866,0.01392810838580098,0.6252944236216765,-0.06218293155038794,0.009009880079055555,0.12298780903842707,0.7064506052698617,-0.8118062643308336,0.23431148146055183,-0.012136375967181319,-0.17364656204128442,0.304971453346222,-0.6416300888277482,0.029439684232275817,0.048608175929546936,0.25278123571547395,0.5057317581310141,-0.20362166454672084,-0.20066818929796948,0.22573287127968145,0.25120378740060406,0.518219412688885,-0.3090577734777853,0.12160242160229552,0.6477149239635611,0.26247538298778866,0.01392810838580098,0.6252944236216765,-0.06218293155038794,0.009009880079055555,0.12298780903842707,0.7064506052698617,-0.8118062643308336,0.23431148146055183,-0.012136375967181319,-0.17364656204128442,0.304971453346222,-0.6416300888277482,0.029439684232275817,0.048608175929546936,0.25278123571547395,0.5057317581310141,-0.20362166454672084,-0.20066818929796948,0.22573287127968145,0.25120378740060406,0.518219412688885,-0.3090577734777853,0.12160242160229552,0.6477149239635611,0.26247538298778866,0.01392810838580098,0.6252944236216765,-0.06218293155038794,0.009009880079055555,0.12298780903842707,0.7064506052698617,-0.8118062643308336,0.23431148146055183,-0.012136375967181319,-0.17364656204128442,0.304971453346222,-0.6416300888277482,0.029439684232275817,0.048608175929546936,0.25278123571547395,0.5057317581310141,-0.20362166454672084,-0.20066818929796948,0.22573287127968145,0.25120378740060406,0.518219412688885,-0.3090577734777853,0.12160242160229552,0.6477149239635611,0.26247538298778866,0.01392810838580098,0.6252944236216765,-0.06218293155038794,0.009009880079055555,0.12298780903842707,0.7064506052698617,-0.8118062643308336,0.23431148146055183,-0.012136375967181319,-0.17364656204128442,0.304971453346222,-0.6416300888277482,0.029439684232275817,0.048608175929546936,0.25278123571547395,0.5057317581310141,-0.20362166454672084,-0.20066818929796948,0.22573287127968145,0.25120378740060406,0.518219412688885,-0.3090577734777853,0.12160242160229552,0.6477149239635611,0.26247538298778866,0.01392810838580098,0.6252944236216765,-0.06218293155038794,0.009009880079055555,0.12298780903842707,0.7064506052698617,-0.8118062643308336,0.23431148146055183,-0.012136375967181319,-0.17364656204128442,0.304971453346222,-0.6416300888277482,0.029439684232275817,0.048608175929546936,0.25278123571547395,0.5057317581310141,-0.20362166454672084,-0.20066818929796948,0.22573287127968145,0.25120378740060406,0.518219412688885,-0.3090577734777853,0.12160242160229552,0.6477149239635611,0.26247538298778866,0.01392810838580098,0.6252944236216765,-0.06218293155038794,0.009009880079055555,0.12298780903842707,0.7064506052698617,-0.8118062643308336,0.23431148146055183,-0.012136375967181319,-0.17364656204128442,0.304971453346222,-0.6416300888277482,0.029439684232275817,0.048608175929546936,0.25278123571547395,0.5057317581310141,-0.20362166454672084,-0.20066818929796948,0.22573287127968145,0.25120378740060406,0.518219412688885,-0.3090577734777853,0.12160242160229552,0.6477149239635611,0.26247538298778866,0.01392810838580098,0.6252944236216765,-0.06218293155038794,0.009009880079055555,0.12298780903842707,0.7064506052698617,-0.8118062643308336,0.23431148146055183,-0.012136375967181319,-0.17364656204128442,0.304971453346222,-0.6416300888277482,0.029439684232275817,0.048608175929546936,0.25278123571547395,0.5057317581310141,-0.20362166454672084,-0.20066818929796948,0.22573287127968145,0.25120378740060406,0.518219412688885,-0.3090577734777853,0.12160242160229552,0.6477149239635611,0.26247538298778866,0.01392810838580098,0.6252944236216765,-0.06218293155038794,0.009009880079055555,0.12298780903842707,0.7064506052698617,-0.8118062643308336,0.23431148146055183,-0.012136375967181319,-0.17364656204128442,0.304971453346222,-0.6416300888277482,0.029439684232275817,0.048608175929546936,0.25278123571547395,0.5057317581310141,-0.20362166454672084,-0.20066818929796948,0.22573287127968145,0.25120378740060406,0.518219412688885,-0.3090577734777853,0.12160242160229552,0.6477149239635611,0.26247538298778866,0.01392810838580098,0.6252944236216765,-0.06218293155038794,0.009009880079055555,0.12298780903842707],[-0.615749476731674,0.1635360624847945,0.1316708463019315,-0.275788435135553,0.09533693218189707,0.5638786365327183,-0.22108551122468106,0.05923142927806134,0.321490954777244,0.3864312094006164,0.6567209916281261,-0.5007964897307468,0.8833269204157501,-0.728424652241063,0.33877410968603006,0.6354806642132986,-0.2281352365277881,0.07541228029956129,-1.421926094181192,-0.2587611634525502,-0.003778751378018186,-0.2242761694734995,-0.023114920797613892,0.006474649471833993,0.026101479971512184,-0.2510512686145802,0.5878936976650592,0.041318464617647724,-0.2568919630695324,0.2267107332177616,0.19988469196008748,1.0040318506473398,0.25458515711606894,-0.2179631434429715,-0.0447165382801947,0.18538445430150557,-0.444183916779788,0.5192963693271537,-0.032087321841113646,0.4795336566408466,0.3657302855307769,-0.928120390910331,0.6323723553214177,-0.7319243142747285,0.002392844747753753,0.13757216223590443,-1.1085082001431248,0.06534417101899266,0.48409818793751064,-0.13709092341118545,-0.2510512686145802,0.5878936976650592,0.041318464617647724,-0.2568919630695324,0.2267107332177616,0.19988469196008748,1.0040318506473398,0.25458515711606894,-0.2179631434429715,-0.0447165382801947,0.18538445430150557,-0.444183916779788,0.5192963693271537,-0.032087321841113646,0.4795336566408466,0.3657302855307769,-0.928120390910331,0.6323723553214177,-0.7319243142747285,0.002392844747753753,0.13757216223590443,-1.1085082001431248,0.06534417101899266,0.48409818793751064,-0.13709092341118545,-0.2510512686145802,0.5878936976650592,0.041318464617647724,-0.2568919630695324,0.2267107332177616,0.19988469196008748,1.0040318506473398,0.25458515711606894,-0.2179631434429715,-0.0447165382801947,0.18538445430150557,-0.444183916779788,0.5192963693271537,-0.032087321841113646,0.4795336566408466,0.3657302855307769,-0.928120390910331,0.6323723553214177,-0.7319243142747285,0.002392844747753753,0.13757216223590443,-1.1085082001431248,0.06534417101899266,0.48409818793751064,-0.13709092341118545,-0.2510512686145802,0.5878936976650592,0.041318464617647724,-0.2568919630695324,0.2267107332177616,0.19988469196008748,1.0040318506473398,0.25458515711606894,-0.2179631434429715,-0.0447165382801947,0.18538445430150557,-0.444183916779788,0.5192963693271537,-0.032087321841113646,0.4795336566408466,0.3657302855307769,-0.928120390910331,0.6323723553214177,-0.7319243142747285,0.002392844747753753,0.13757216223590443,-1.1085082001431248,0.06534417101899266,0.48409818793751064,-0.13709092341118545,-0.2510512686145802,0.5878936976650592,0.041318464617647724,-0.2568919630695324,0.2267107332177616,0.19988469196008748,1.0040318506473398,0.25458515711606894,-0.2179631434429715,-0.0447165382801947,0.18538445430150557,-0.444183916779788,0.5192963693271537,-0.032087321841113646,0.4795336566408466,0.3657302855307769,-0.928120390910331,0.6323723553214177,-0.7319243142747285,0.002392844747753753,0.13757216223590443,-1.1085082001431248,0.06534417101899266,0.48409818793751064,-0.13709092341118545,-0.2510512686145802,0.5878936976650592,0.041318464617647724,-0.2568919630695324,0.2267107332177616,0.19988469196008748,1.0040318506473398,0.25458515711606894,-0.2179631434429715,-0.0447165382801947,0.18538445430150557,-0.444183916779788,0.5192963693271537,-0.032087321841113646,0.4795336566408466,0.3657302855307769,-0.928120390910331,0.6323723553214177,-0.7319243142747285,0.002392844747753753,0.13757216223590443,-1.1085082001431248,0.06534417101899266,0.48409818793751064,-0.13709092341118545,-0.2510512686145802,0.5878936976650592,0.041318464617647724,-0.2568919630695324,0.2267107332177616,0.19988469196008748,1.0040318506473398,0.25458515711606894,-0.2179631434429715,-0.0447165382801947,0.18538445430150557,-0.444183916779788,0.5192963693271537,-0.032087321841113646,0.4795336566408466,0.3657302855307769,-0.928120390910331,0.6323723553214177,-0.7319243142747285,0.002392844747753753,0.13757216223590443,-1.1085082001431248,0.06534417101899266,0.48409818793751064,-0.13709092341118545,-0.2510512686145802,0.5878936976650592,0.041318464617647724,-0.2568919630695324,0.2267107332177616,0.19988469196008748,1.0040318506473398,0.25458515711606894,-0.2179631434429715,-0.0447165382801947,0.18538445430150557,-0.444183916779788,0.5192963693271537,-0.032087321841113646,0.4795336566408466,0.3657302855307769,-0.928120390910331,0.6323723553214177,-0.7319243142747285,0.002392844747753753,0.13757216223590443,-1.1085082001431248,0.06534417101899266,0.48409818793751064,-0.13709092341118545,-0.2510512686145802,0.5878936976650592,0.041318464617647724,-0.2568919630695324,0.2267107332177616,0.19988469196008748,1.0040318506473398,0.25458515711606894,-0.2179631434429715,-0.0447165382801947,0.18538445430150557,-0.444183916779788,0.5192963693271537,-0.032087321841113646,0.4795336566408466,0.3657302855307769,-0.928120390910331,0.6323723553214177,-0.7319243142747285,0.002392844747753753,0.13757216223590443,-1.1085082001431248,0.06534417101899266,0.48409818793751064,-0.13709092341118545,-0.2510512686145802,0.5878936976650592,0.041318464617647724,-0.2568919630695324,0.2267107332177616,0.19988469196008748,1.0040318506473398,0.25458515711606894,-0.2179631434429715,-0.0447165382801947,0.18538445430150557,-0.444183916779788,0.5192963693271537,-0.032087321841113646,0.4795336566408466,0.3657302855307769,-0.928120390910331,0.6323723553214177,-0.7319243142747285,0.002392844747753753,0.13757216223590443,-1.1085082001431248,0.06534417101899266,0.48409818793751064,-0.13709092341118545,-0.2510512686145802,0.5878936976650592,0.041318464617647724,-0.2568919630695324,0.2267107332177616,0.19988469196008748,1.0040318506473398,0.25458515711606894,-0.2179631434429715,-0.0447165382801947,0.18538445430150557,-0.444183916779788,0.5192963693271537,-0.032087321841113646,0.4795336566408466,0.3657302855307769,-0.928120390910331,0.6323723553214177,-0.7319243142747285,0.002392844747753753,0.13757216223590443,-1.1085082001431248,0.06534417101899266,0.48409818793751064,-0.13709092341118545,-0.2510512686145802,0.5878936976650592,0.041318464617647724,-0.2568919630695324,0.2267107332177616,0.19988469196008748,1.0040318506473398,0.25458515711606894,-0.2179631434429715,-0.0447165382801947,0.18538445430150557,-0.444183916779788,0.5192963693271537,-0.032087321841113646,0.4795336566408466,0.3657302855307769,-0.928120390910331,0.6323723553214177,-0.7319243142747285,0.002392844747753753,0.13757216223590443,-1.1085082001431248,0.06534417101899266,0.48409818793751064,-0.13709092341118545,-0.2510512686145802,0.5878936976650592,0.041318464617647724,-0.2568919630695324,0.2267107332177616,0.19988469196008748,1.0040318506473398,0.25458515711606894,-0.2179631434429715,-0.0447165382801947,0.18538445430150557,-0.444183916779788,0.5192963693271537,-0.032087321841113646,0.4795336566408466,0.3657302855307769,-0.928120390910331,0.6323723553214177,-0.7319243142747285,0.002392844747753753,0.13757216223590443,-1.1085082001431248,0.06534417101899266,0.48409818793751064,-0.13709092341118545,-0.2510512686145802,0.5878936976650592,0.041318464617647724,-0.2568919630695324,0.2267107332177616,0.19988469196008748,1.0040318506473398,0.25458515711606894,-0.2179631434429715,-0.0447165382801947,0.18538445430150557,-0.444183916779788,0.5192963693271537,-0.032087321841113646,0.4795336566408466,0.3657302855307769,-0.928120390910331,0.6323723553214177,-0.7319243142747285,0.002392844747753753,0.13757216223590443,-1.1085082001431248,0.06534417101899266,0.48409818793751064,-0.13709092341118545,-0.2510512686145802,0.5878936976650592,0.041318464617647724,-0.2568919630695324,0.2267107332177616,0.19988469196008748,1.0040318506473398,0.25458515711606894,-0.2179631434429715,-0.0447165382801947,0.18538445430150557,-0.444183916779788,0.5192963693271537,-0.032087321841113646,0.4795336566408466,0.3657302855307769,-0.928120390910331,0.6323723553214177,-0.7319243142747285,0.002392844747753753,0.13757216223590443,-1.1085082001431248,0.06534417101899266,0.48409818793751064,-0.13709092341118545,-0.2510512686145802,0.5878936976650592,0.041318464617647724,-0.2568919630695324,0.2267107332177616,0.19988469196008748,1.0040318506473398,0.25458515711606894,-0.2179631434429715,-0.0447165382801947,0.18538445430150557,-0.444183916779788,0.5192963693271537,-0.032087321841113646,0.4795336566408466,0.3657302855307769,-0.928120390910331,0.6323723553214177,-0.7319243142747285,0.002392844747753753,0.13757216223590443,-1.1085082001431248,0.06534417101899266,0.48409818793751064,-0.13709092341118545,-0.2510512686145802,0.5878936976650592,0.041318464617647724,-0.2568919630695324,0.2267107332177616,0.19988469196008748,1.0040318506473398,0.25458515711606894,-0.2179631434429715,-0.0447165382801947,0.18538445430150557,-0.444183916779788,0.5192963693271537,-0.032087321841113646,0.4795336566408466,0.3657302855307769,-0.928120390910331,0.6323723553214177,-0.7319243142747285,0.002392844747753753,0.13757216223590443,-1.1085082001431248,0.06534417101899266,0.48409818793751064,-0.13709092341118545],[0.2622986292416871,-0.24356885660509384,0.14431974233707523,-0.3817036842038095,0.10310164977265823,0.24501157515827898,-0.12689214706013718,0.3485203263951144,-0.7042659407548286,0.17168270054837032,0.22007038828103198,-0.013906250855015833,0.3006085999186975,-0.3839804707282478,0.015804020629727956,0.041975148082870915,-0.0036247894909117685,0.17834520447357316,-0.057112022484974975,-0.1642895772080731,-0.003614385996758177,0.2244572985921172,-0.05920276866768022,-0.04662788478807639,0.006609504514721414,0.7672299738570367,0.8685225389646714,0.17254157692280112,-1.3243302019897558,-0.056172072390270465,0.5487281249860669,0.4921273194358954,0.6162576682219402,-1.8154866266288978,-0.23583472109777662,0.6634904505752451,0.826338670249163,0.4947975717899623,-1.142994381430417,-0.07689536530398873,0.35683134982410214,0.40458407791756745,0.34981755835500045,-0.2163748794094543,-0.3652996389231024,0.5071583278002512,0.5888884991072124,-0.3367294656937475,-0.22690484202278383,-0.11604620940271944,0.7672299738570367,0.8685225389646714,0.17254157692280112,-1.3243302019897558,-0.056172072390270465,0.5487281249860669,0.4921273194358954,0.6162576682219402,-1.8154866266288978,-0.23583472109777662,0.6634904505752451,0.826338670249163,0.4947975717899623,-1.142994381430417,-0.07689536530398873,0.35683134982410214,0.40458407791756745,0.34981755835500045,-0.2163748794094543,-0.3652996389231024,0.5071583278002512,0.5888884991072124,-0.3367294656937475,-0.22690484202278383,-0.11604620940271944,0.7672299738570367,0.8685225389646714,0.17254157692280112,-1.3243302019897558,-0.056172072390270465,0.5487281249860669,0.4921273194358954,0.6162576682219402,-1.8154866266288978,-0.23583472109777662,0.6634904505752451,0.826338670249163,0.4947975717899623,-1.142994381430417,-0.07689536530398873,0.35683134982410214,0.40458407791756745,0.34981755835500045,-0.2163748794094543,-0.3652996389231024,0.5071583278002512,0.5888884991072124,-0.3367294656937475,-0.22690484202278383,-0.11604620940271944,0.7672299738570367,0.8685225389646714,0.17254157692280112,-1.3243302019897558,-0.056172072390270465,0.5487281249860669,0.4921273194358954,0.6162576682219402,-1.8154866266288978,-0.23583472109777662,0.6634904505752451,0.826338670249163,0.4947975717899623,-1.142994381430417,-0.07689536530398873,0.35683134982410214,0.40458407791756745,0.34981755835500045,-0.2163748794094543,-0.3652996389231024,0.5071583278002512,0.5888884991072124,-0.3367294656937475,-0.22690484202278383,-0.11604620940271944,0.7672299738570367,0.8685225389646714,0.17254157692280112,-1.3243302019897558,-0.056172072390270465,0.5487281249860669,0.4921273194358954,0.6162576682219402,-1.8154866266288978,-0.23583472109777662,0.6634904505752451,0.826338670249163,0.4947975717899623,-1.142994381430417,-0.07689536530398873,0.35683134982410214,0.40458407791756745,0.34981755835500045,-0.2163748794094543,-0.3652996389231024,0.5071583278002512,0.5888884991072124,-0.3367294656937475,-0.22690484202278383,-0.11604620940271944,0.7672299738570367,0.8685225389646714,0.17254157692280112,-1.3243302019897558,-0.056172072390270465,0.5487281249860669,0.4921273194358954,0.6162576682219402,-1.8154866266288978,-0.23583472109777662,0.6634904505752451,0.826338670249163,0.4947975717899623,-1.142994381430417,-0.07689536530398873,0.35683134982410214,0.40458407791756745,0.34981755835500045,-0.2163748794094543,-0.3652996389231024,0.5071583278002512,0.5888884991072124,-0.3367294656937475,-0.22690484202278383,-0.11604620940271944,0.7672299738570367,0.8685225389646714,0.17254157692280112,-1.3243302019897558,-0.056172072390270465,0.5487281249860669,0.4921273194358954,0.6162576682219402,-1.8154866266288978,-0.23583472109777662,0.6634904505752451,0.826338670249163,0.4947975717899623,-1.142994381430417,-0.07689536530398873,0.35683134982410214,0.40458407791756745,0.34981755835500045,-0.2163748794094543,-0.3652996389231024,0.5071583278002512,0.5888884991072124,-0.3367294656937475,-0.22690484202278383,-0.11604620940271944,0.7672299738570367,0.8685225389646714,0.17254157692280112,-1.3243302019897558,-0.056172072390270465,0.5487281249860669,0.4921273194358954,0.6162576682219402,-1.8154866266288978,-0.23583472109777662,0.6634904505752451,0.826338670249163,0.4947975717899623,-1.142994381430417,-0.07689536530398873,0.35683134982410214,0.40458407791756745,0.34981755835500045,-0.2163748794094543,-0.3652996389231024,0.5071583278002512,0.5888884991072124,-0.3367294656937475,-0.22690484202278383,-0.11604620940271944,0.7672299738570367,0.8685225389646714,0.17254157692280112,-1.3243302019897558,-0.056172072390270465,0.5487281249860669,0.4921273194358954,0.6162576682219402,-1.8154866266288978,-0.23583472109777662,0.6634904505752451,0.826338670249163,0.4947975717899623,-1.142994381430417,-0.07689536530398873,0.35683134982410214,0.40458407791756745,0.34981755835500045,-0.2163748794094543,-0.3652996389231024,0.5071583278002512,0.5888884991072124,-0.3367294656937475,-0.22690484202278383,-0.11604620940271944,0.7672299738570367,0.8685225389646714,0.17254157692280112,-1.3243302019897558,-0.056172072390270465,0.5487281249860669,0.4921273194358954,0.6162576682219402,-1.8154866266288978,-0.23583472109777662,0.6634904505752451,0.826338670249163,0.4947975717899623,-1.142994381430417,-0.07689536530398873,0.35683134982410214,0.40458407791756745,0.34981755835500045,-0.2163748794094543,-0.3652996389231024,0.5071583278002512,0.5888884991072124,-0.3367294656937475,-0.22690484202278383,-0.11604620940271944,0.7672299738570367,0.8685225389646714,0.17254157692280112,-1.3243302019897558,-0.056172072390270465,0.5487281249860669,0.4921273194358954,0.6162576682219402,-1.8154866266288978,-0.23583472109777662,0.6634904505752451,0.826338670249163,0.4947975717899623,-1.142994381430417,-0.07689536530398873,0.35683134982410214,0.40458407791756745,0.34981755835500045,-0.2163748794094543,-0.3652996389231024,0.5071583278002512,0.5888884991072124,-0.3367294656937475,-0.22690484202278383,-0.11604620940271944,0.7672299738570367,0.8685225389646714,0.17254157692280112,-1.3243302019897558,-0.056172072390270465,0.5487281249860669,0.4921273194358954,0.6162576682219402,-1.8154866266288978,-0.23583472109777662,0.6634904505752451,0.826338670249163,0.4947975717899623,-1.142994381430417,-0.07689536530398873,0.35683134982410214,0.40458407791756745,0.34981755835500045,-0.2163748794094543,-0.3652996389231024,0.5071583278002512,0.5888884991072124,-0.3367294656937475,-0.22690484202278383,-0.11604620940271944,0.7672299738570367,0.8685225389646714,0.17254157692280112,-1.3243302019897558,-0.056172072390270465,0.5487281249860669,0.4921273194358954,0.6162576682219402,-1.8154866266288978,-0.23583472109777662,0.6634904505752451,0.826338670249163,0.4947975717899623,-1.142994381430417,-0.07689536530398873,0.35683134982410214,0.40458407791756745,0.34981755835500045,-0.2163748794094543,-0.3652996389231024,0.5071583278002512,0.5888884991072124,-0.3367294656937475,-0.22690484202278383,-0.11604620940271944,0.7672299738570367,0.8685225389646714,0.17254157692280112,-1.3243302019897558,-0.056172072390270465,0.5487281249860669,0.4921273194358954,0.6162576682219402,-1.8154866266288978,-0.23583472109777662,0.6634904505752451,0.826338670249163,0.4947975717899623,-1.142994381430417,-0.07689536530398873,0.35683134982410214,0.40458407791756745,0.34981755835500045,-0.2163748794094543,-0.3652996389231024,0.5071583278002512,0.5888884991072124,-0.3367294656937475,-0.22690484202278383,-0.11604620940271944,0.7672299738570367,0.8685225389646714,0.17254157692280112,-1.3243302019897558,-0.056172072390270465,0.5487281249860669,0.4921273194358954,0.6162576682219402,-1.8154866266288978,-0.23583472109777662,0.6634904505752451,0.826338670249163,0.4947975717899623,-1.142994381430417,-0.07689536530398873,0.35683134982410214,0.40458407791756745,0.34981755835500045,-0.2163748794094543,-0.3652996389231024,0.5071583278002512,0.5888884991072124,-0.3367294656937475,-0.22690484202278383,-0.11604620940271944,0.7672299738570367,0.8685225389646714,0.17254157692280112,-1.3243302019897558,-0.056172072390270465,0.5487281249860669,0.4921273194358954,0.6162576682219402,-1.8154866266288978,-0.23583472109777662,0.6634904505752451,0.826338670249163,0.4947975717899623,-1.142994381430417,-0.07689536530398873,0.35683134982410214,0.40458407791756745,0.34981755835500045,-0.2163748794094543,-0.3652996389231024,0.5071583278002512,0.5888884991072124,-0.3367294656937475,-0.22690484202278383,-0.11604620940271944,0.7672299738570367,0.8685225389646714,0.17254157692280112,-1.3243302019897558,-0.056172072390270465,0.5487281249860669,0.4921273194358954,0.6162576682219402,-1.8154866266288978,-0.23583472109777662,0.6634904505752451,0.826338670249163,0.4947975717899623,-1.142994381430417,-0.07689536530398873,0.35683134982410214,0.40458407791756745,0.34981755835500045,-0.2163748794094543,-0.3652996389231024,0.5071583278002512,0.5888884991072124,-0.3367294656937475,-0.22690484202278383,-0.11604620940271944],[0.18119330851951423,0.15411999200656812,0.07499151748583703,0.21410695917657263,-0.040899386285263115,-0.28512629081057256,0.2618724500272453,0.3274089626560877,0.12799220123911256,-0.05124507160831787,-0.20311358689363773,-0.0572480694600665,0.12333210653465193,0.24246615018729184,-0.14323786807287306,-0.1952280542485331,0.16154070140445653,0.1828083756704803,0.3068491821662109,0.05300197266664758,0.023512568888584776,0.05047138742007444,0.053359177329931284,0.25320054618068927,0.041684861245511934,0.3598413892816818,0.10200029008842072,0.4523357275474868,0.6295036612122549,0.06389894398483731,-0.44634038490152683,0.44026303704171343,0.6641389427206166,0.8060417877663265,0.20356441246736173,-0.5350795146483355,-0.7475994531220567,-0.6014879846168829,-0.023726654543851276,-0.3643457753833971,-0.06919883449114274,0.18026752082267594,0.43624170375256155,0.7639414333737193,0.15935887168746485,0.05836233055481456,0.537916174784544,0.019844090306871405,0.6017698095278958,-0.228941940537638,0.3598413892816818,0.10200029008842072,0.4523357275474868,0.6295036612122549,0.06389894398483731,-0.44634038490152683,0.44026303704171343,0.6641389427206166,0.8060417877663265,0.20356441246736173,-0.5350795146483355,-0.7475994531220567,-0.6014879846168829,-0.023726654543851276,-0.3643457753833971,-0.06919883449114274,0.18026752082267594,0.43624170375256155,0.7639414333737193,0.15935887168746485,0.05836233055481456,0.537916174784544,0.019844090306871405,0.6017698095278958,-0.228941940537638,0.3598413892816818,0.10200029008842072,0.4523357275474868,0.6295036612122549,0.06389894398483731,-0.44634038490152683,0.44026303704171343,0.6641389427206166,0.8060417877663265,0.20356441246736173,-0.5350795146483355,-0.7475994531220567,-0.6014879846168829,-0.023726654543851276,-0.3643457753833971,-0.06919883449114274,0.18026752082267594,0.43624170375256155,0.7639414333737193,0.15935887168746485,0.05836233055481456,0.537916174784544,0.019844090306871405,0.6017698095278958,-0.228941940537638,0.3598413892816818,0.10200029008842072,0.4523357275474868,0.6295036612122549,0.06389894398483731,-0.44634038490152683,0.44026303704171343,0.6641389427206166,0.8060417877663265,0.20356441246736173,-0.5350795146483355,-0.7475994531220567,-0.6014879846168829,-0.023726654543851276,-0.3643457753833971,-0.06919883449114274,0.18026752082267594,0.43624170375256155,0.7639414333737193,0.15935887168746485,0.05836233055481456,0.537916174784544,0.019844090306871405,0.6017698095278958,-0.228941940537638,0.3598413892816818,0.10200029008842072,0.4523357275474868,0.6295036612122549,0.06389894398483731,-0.44634038490152683,0.44026303704171343,0.6641389427206166,0.8060417877663265,0.20356441246736173,-0.5350795146483355,-0.7475994531220567,-0.6014879846168829,-0.023726654543851276,-0.3643457753833971,-0.06919883449114274,0.18026752082267594,0.43624170375256155,0.7639414333737193,0.15935887168746485,0.05836233055481456,0.537916174784544,0.019844090306871405,0.6017698095278958,-0.228941940537638,0.3598413892816818,0.10200029008842072,0.4523357275474868,0.6295036612122549,0.06389894398483731,-0.44634038490152683,0.44026303704171343,0.6641389427206166,0.8060417877663265,0.20356441246736173,-0.5350795146483355,-0.7475994531220567,-0.6014879846168829,-0.023726654543851276,-0.3643457753833971,-0.06919883449114274,0.18026752082267594,0.43624170375256155,0.7639414333737193,0.15935887168746485,0.05836233055481456,0.537916174784544,0.019844090306871405,0.6017698095278958,-0.228941940537638,0.3598413892816818,0.10200029008842072,0.4523357275474868,0.6295036612122549,0.06389894398483731,-0.44634038490152683,0.44026303704171343,0.6641389427206166,0.8060417877663265,0.20356441246736173,-0.5350795146483355,-0.7475994531220567,-0.6014879846168829,-0.023726654543851276,-0.3643457753833971,-0.06919883449114274,0.18026752082267594,0.43624170375256155,0.7639414333737193,0.15935887168746485,0.05836233055481456,0.537916174784544,0.019844090306871405,0.6017698095278958,-0.228941940537638,0.3598413892816818,0.10200029008842072,0.4523357275474868,0.6295036612122549,0.06389894398483731,-0.44634038490152683,0.44026303704171343,0.6641389427206166,0.8060417877663265,0.20356441246736173,-0.5350795146483355,-0.7475994531220567,-0.6014879846168829,-0.023726654543851276,-0.3643457753833971,-0.06919883449114274,0.18026752082267594,0.43624170375256155,0.7639414333737193,0.15935887168746485,0.05836233055481456,0.537916174784544,0.019844090306871405,0.6017698095278958,-0.228941940537638,0.3598413892816818,0.10200029008842072,0.4523357275474868,0.6295036612122549,0.06389894398483731,-0.44634038490152683,0.44026303704171343,0.6641389427206166,0.8060417877663265,0.20356441246736173,-0.5350795146483355,-0.7475994531220567,-0.6014879846168829,-0.023726654543851276,-0.3643457753833971,-0.06919883449114274,0.18026752082267594,0.43624170375256155,0.7639414333737193,0.15935887168746485,0.05836233055481456,0.537916174784544,0.019844090306871405,0.6017698095278958,-0.228941940537638,0.3598413892816818,0.10200029008842072,0.4523357275474868,0.6295036612122549,0.06389894398483731,-0.44634038490152683,0.44026303704171343,0.6641389427206166,0.8060417877663265,0.20356441246736173,-0.5350795146483355,-0.7475994531220567,-0.6014879846168829,-0.023726654543851276,-0.3643457753833971,-0.06919883449114274,0.18026752082267594,0.43624170375256155,0.7639414333737193,0.15935887168746485,0.05836233055481456,0.537916174784544,0.019844090306871405,0.6017698095278958,-0.228941940537638,0.3598413892816818,0.10200029008842072,0.4523357275474868,0.6295036612122549,0.06389894398483731,-0.44634038490152683,0.44026303704171343,0.6641389427206166,0.8060417877663265,0.20356441246736173,-0.5350795146483355,-0.7475994531220567,-0.6014879846168829,-0.023726654543851276,-0.3643457753833971,-0.06919883449114274,0.18026752082267594,0.43624170375256155,0.7639414333737193,0.15935887168746485,0.05836233055481456,0.537916174784544,0.019844090306871405,0.6017698095278958,-0.228941940537638,0.3598413892816818,0.10200029008842072,0.4523357275474868,0.6295036612122549,0.06389894398483731,-0.44634038490152683,0.44026303704171343,0.6641389427206166,0.8060417877663265,0.20356441246736173,-0.5350795146483355,-0.7475994531220567,-0.6014879846168829,-0.023726654543851276,-0.3643457753833971,-0.06919883449114274,0.18026752082267594,0.43624170375256155,0.7639414333737193,0.15935887168746485,0.05836233055481456,0.537916174784544,0.019844090306871405,0.6017698095278958,-0.228941940537638,0.3598413892816818,0.10200029008842072,0.4523357275474868,0.6295036612122549,0.06389894398483731,-0.44634038490152683,0.44026303704171343,0.6641389427206166,0.8060417877663265,0.20356441246736173,-0.5350795146483355,-0.7475994531220567,-0.6014879846168829,-0.023726654543851276,-0.3643457753833971,-0.06919883449114274,0.18026752082267594,0.43624170375256155,0.7639414333737193,0.15935887168746485,0.05836233055481456,0.537916174784544,0.019844090306871405,0.6017698095278958,-0.228941940537638,0.3598413892816818,0.10200029008842072,0.4523357275474868,0.6295036612122549,0.06389894398483731,-0.44634038490152683,0.44026303704171343,0.6641389427206166,0.8060417877663265,0.20356441246736173,-0.5350795146483355,-0.7475994531220567,-0.6014879846168829,-0.023726654543851276,-0.3643457753833971,-0.06919883449114274,0.18026752082267594,0.43624170375256155,0.7639414333737193,0.15935887168746485,0.05836233055481456,0.537916174784544,0.019844090306871405,0.6017698095278958,-0.228941940537638,0.3598413892816818,0.10200029008842072,0.4523357275474868,0.6295036612122549,0.06389894398483731,-0.44634038490152683,0.44026303704171343,0.6641389427206166,0.8060417877663265,0.20356441246736173,-0.5350795146483355,-0.7475994531220567,-0.6014879846168829,-0.023726654543851276,-0.3643457753833971,-0.06919883449114274,0.18026752082267594,0.43624170375256155,0.7639414333737193,0.15935887168746485,0.05836233055481456,0.537916174784544,0.019844090306871405,0.6017698095278958,-0.228941940537638,0.3598413892816818,0.10200029008842072,0.4523357275474868,0.6295036612122549,0.06389894398483731,-0.44634038490152683,0.44026303704171343,0.6641389427206166,0.8060417877663265,0.20356441246736173,-0.5350795146483355,-0.7475994531220567,-0.6014879846168829,-0.023726654543851276,-0.3643457753833971,-0.06919883449114274,0.18026752082267594,0.43624170375256155,0.7639414333737193,0.15935887168746485,0.05836233055481456,0.537916174784544,0.019844090306871405,0.6017698095278958,-0.228941940537638,0.3598413892816818,0.10200029008842072,0.4523357275474868,0.6295036612122549,0.06389894398483731,-0.44634038490152683,0.44026303704171343,0.6641389427206166,0.8060417877663265,0.20356441246736173,-0.5350795146483355,-0.7475994531220567,-0.6014879846168829,-0.023726654543851276,-0.3643457753833971,-0.06919883449114274,0.18026752082267594,0.43624170375256155,0.7639414333737193,0.15935887168746485,0.05836233055481456,0.537916174784544,0.019844090306871405,0.6017698095278958,-0.228941940537638],[0.2700552487084835,-0.7857523280277049,0.23216168000081872,1.0886125788189926,-0.03278878618398142,-0.16680373565754075,-0.576236069015693,-0.28663282448495825,1.3093861284323325,0.3033292509881617,-0.06518413815026251,-0.24088647116524728,-0.42944091564698667,1.4560985469418843,0.25657374220358886,0.2986117339375702,0.0067546373098511985,-0.07706049652898489,1.2990389561935427,0.17317779141148762,-0.1574858514339664,0.3056599519485597,0.06101499054921191,0.29925460176070845,-0.13474913582887882,0.18188895920315126,1.111205189975708,-0.022664324193231014,-0.5422266504886261,-0.06521969846950731,-0.27046784647783695,1.0640190724854537,0.6804287854534921,-0.593437386628019,-0.15644534921464887,-0.15981959291671252,0.6761817158468002,0.3336333059890108,-0.7149589976648196,-0.3108460344943372,-0.24927174448824183,0.5480412098409359,0.3850745818804306,-0.18315079974760973,-0.06720453313593418,0.4091129745537131,0.1872110722455167,-0.1316542190799564,0.24197228261068285,-0.17491584701427693,0.18188895920315126,1.111205189975708,-0.022664324193231014,-0.5422266504886261,-0.06521969846950731,-0.27046784647783695,1.0640190724854537,0.6804287854534921,-0.593437386628019,-0.15644534921464887,-0.15981959291671252,0.6761817158468002,0.3336333059890108,-0.7149589976648196,-0.3108460344943372,-0.24927174448824183,0.5480412098409359,0.3850745818804306,-0.18315079974760973,-0.06720453313593418,0.4091129745537131,0.1872110722455167,-0.1316542190799564,0.24197228261068285,-0.17491584701427693,0.18188895920315126,1.111205189975708,-0.022664324193231014,-0.5422266504886261,-0.06521969846950731,-0.27046784647783695,1.0640190724854537,0.6804287854534921,-0.593437386628019,-0.15644534921464887,-0.15981959291671252,0.6761817158468002,0.3336333059890108,-0.7149589976648196,-0.3108460344943372,-0.24927174448824183,0.5480412098409359,0.3850745818804306,-0.18315079974760973,-0.06720453313593418,0.4091129745537131,0.1872110722455167,-0.1316542190799564,0.24197228261068285,-0.17491584701427693,0.18188895920315126,1.111205189975708,-0.022664324193231014,-0.5422266504886261,-0.06521969846950731,-0.27046784647783695,1.0640190724854537,0.6804287854534921,-0.593437386628019,-0.15644534921464887,-0.15981959291671252,0.6761817158468002,0.3336333059890108,-0.7149589976648196,-0.3108460344943372,-0.24927174448824183,0.5480412098409359,0.3850745818804306,-0.18315079974760973,-0.06720453313593418,0.4091129745537131,0.1872110722455167,-0.1316542190799564,0.24197228261068285,-0.17491584701427693,0.18188895920315126,1.111205189975708,-0.022664324193231014,-0.5422266504886261,-0.06521969846950731,-0.27046784647783695,1.0640190724854537,0.6804287854534921,-0.593437386628019,-0.15644534921464887,-0.15981959291671252,0.6761817158468002,0.3336333059890108,-0.7149589976648196,-0.3108460344943372,-0.24927174448824183,0.5480412098409359,0.3850745818804306,-0.18315079974760973,-0.06720453313593418,0.4091129745537131,0.1872110722455167,-0.1316542190799564,0.24197228261068285,-0.17491584701427693,0.18188895920315126,1.111205189975708,-0.022664324193231014,-0.5422266504886261,-0.06521969846950731,-0.27046784647783695,1.0640190724854537,0.6804287854534921,-0.593437386628019,-0.15644534921464887,-0.15981959291671252,0.6761817158468002,0.3336333059890108,-0.7149589976648196,-0.3108460344943372,-0.24927174448824183,0.5480412098409359,0.3850745818804306,-0.18315079974760973,-0.06720453313593418,0.4091129745537131,0.1872110722455167,-0.1316542190799564,0.24197228261068285,-0.17491584701427693,0.18188895920315126,1.111205189975708,-0.022664324193231014,-0.5422266504886261,-0.06521969846950731,-0.27046784647783695,1.0640190724854537,0.6804287854534921,-0.593437386628019,-0.15644534921464887,-0.15981959291671252,0.6761817158468002,0.3336333059890108,-0.7149589976648196,-0.3108460344943372,-0.24927174448824183,0.5480412098409359,0.3850745818804306,-0.18315079974760973,-0.06720453313593418,0.4091129745537131,0.1872110722455167,-0.1316542190799564,0.24197228261068285,-0.17491584701427693,0.18188895920315126,1.111205189975708,-0.022664324193231014,-0.5422266504886261,-0.06521969846950731,-0.27046784647783695,1.0640190724854537,0.6804287854534921,-0.593437386628019,-0.15644534921464887,-0.15981959291671252,0.6761817158468002,0.3336333059890108,-0.7149589976648196,-0.3108460344943372,-0.24927174448824183,0.5480412098409359,0.3850745818804306,-0.18315079974760973,-0.06720453313593418,0.4091129745537131,0.1872110722455167,-0.1316542190799564,0.24197228261068285,-0.17491584701427693,0.18188895920315126,1.111205189975708,-0.022664324193231014,-0.5422266504886261,-0.06521969846950731,-0.27046784647783695,1.0640190724854537,0.6804287854534921,-0.593437386628019,-0.15644534921464887,-0.15981959291671252,0.6761817158468002,0.3336333059890108,-0.7149589976648196,-0.3108460344943372,-0.24927174448824183,0.5480412098409359,0.3850745818804306,-0.18315079974760973,-0.06720453313593418,0.4091129745537131,0.1872110722455167,-0.1316542190799564,0.24197228261068285,-0.17491584701427693,0.18188895920315126,1.111205189975708,-0.022664324193231014,-0.5422266504886261,-0.06521969846950731,-0.27046784647783695,1.0640190724854537,0.6804287854534921,-0.593437386628019,-0.15644534921464887,-0.15981959291671252,0.6761817158468002,0.3336333059890108,-0.7149589976648196,-0.3108460344943372,-0.24927174448824183,0.5480412098409359,0.3850745818804306,-0.18315079974760973,-0.06720453313593418,0.4091129745537131,0.1872110722455167,-0.1316542190799564,0.24197228261068285,-0.17491584701427693,0.18188895920315126,1.111205189975708,-0.022664324193231014,-0.5422266504886261,-0.06521969846950731,-0.27046784647783695,1.0640190724854537,0.6804287854534921,-0.593437386628019,-0.15644534921464887,-0.15981959291671252,0.6761817158468002,0.3336333059890108,-0.7149589976648196,-0.3108460344943372,-0.24927174448824183,0.5480412098409359,0.3850745818804306,-0.18315079974760973,-0.06720453313593418,0.4091129745537131,0.1872110722455167,-0.1316542190799564,0.24197228261068285,-0.17491584701427693,0.18188895920315126,1.111205189975708,-0.022664324193231014,-0.5422266504886261,-0.06521969846950731,-0.27046784647783695,1.0640190724854537,0.6804287854534921,-0.593437386628019,-0.15644534921464887,-0.15981959291671252,0.6761817158468002,0.3336333059890108,-0.7149589976648196,-0.3108460344943372,-0.24927174448824183,0.5480412098409359,0.3850745818804306,-0.18315079974760973,-0.06720453313593418,0.4091129745537131,0.1872110722455167,-0.1316542190799564,0.24197228261068285,-0.17491584701427693,0.18188895920315126,1.111205189975708,-0.022664324193231014,-0.5422266504886261,-0.06521969846950731,-0.27046784647783695,1.0640190724854537,0.6804287854534921,-0.593437386628019,-0.15644534921464887,-0.15981959291671252,0.6761817158468002,0.3336333059890108,-0.7149589976648196,-0.3108460344943372,-0.24927174448824183,0.5480412098409359,0.3850745818804306,-0.18315079974760973,-0.06720453313593418,0.4091129745537131,0.1872110722455167,-0.1316542190799564,0.24197228261068285,-0.17491584701427693,0.18188895920315126,1.111205189975708,-0.022664324193231014,-0.5422266504886261,-0.06521969846950731,-0.27046784647783695,1.0640190724854537,0.6804287854534921,-0.593437386628019,-0.15644534921464887,-0.15981959291671252,0.6761817158468002,0.3336333059890108,-0.7149589976648196,-0.3108460344943372,-0.24927174448824183,0.5480412098409359,0.3850745818804306,-0.18315079974760973,-0.06720453313593418,0.4091129745537131,0.1872110722455167,-0.1316542190799564,0.24197228261068285,-0.17491584701427693,0.18188895920315126,1.111205189975708,-0.022664324193231014,-0.5422266504886261,-0.06521969846950731,-0.27046784647783695,1.0640190724854537,0.6804287854534921,-0.593437386628019,-0.15644534921464887,-0.15981959291671252,0.6761817158468002,0.3336333059890108,-0.7149589976648196,-0.3108460344943372,-0.24927174448824183,0.5480412098409359,0.3850745818804306,-0.18315079974760973,-0.06720453313593418,0.4091129745537131,0.1872110722455167,-0.1316542190799564,0.24197228261068285,-0.17491584701427693,0.18188895920315126,1.111205189975708,-0.022664324193231014,-0.5422266504886261,-0.06521969846950731,-0.27046784647783695,1.0640190724854537,0.6804287854534921,-0.593437386628019,-0.15644534921464887,-0.15981959291671252,0.6761817158468002,0.3336333059890108,-0.7149589976648196,-0.3108460344943372,-0.24927174448824183,0.5480412098409359,0.3850745818804306,-0.18315079974760973,-0.06720453313593418,0.4091129745537131,0.1872110722455167,-0.1316542190799564,0.24197228261068285,-0.17491584701427693,0.18188895920315126,1.111205189975708,-0.022664324193231014,-0.5422266504886261,-0.06521969846950731,-0.27046784647783695,1.0640190724854537,0.6804287854534921,-0.593437386628019,-0.15644534921464887,-0.15981959291671252,0.6761817158468002,0.3336333059890108,-0.7149589976648196,-0.3108460344943372,-0.24927174448824183,0.5480412098409359,0.3850745818804306,-0.18315079974760973,-0.06720453313593418,0.4091129745537131,0.1872110722455167,-0.1316542190799564,0.24197228261068285,-0.17491584701427693],[0.23478590083357373,0.8877098504847436,0.113151230986106,-0.26971146954971825,-0.18600557526328448,-0.4439231236709088,0.9819748172659635,0.8052372459757913,-0.40132053338639234,-0.21200189684150014,-0.20346613013460554,0.7882932507239141,0.5392626612022251,-0.7455652720464746,-0.4545626143881053,-0.33987672931820806,1.1125027790111222,0.6006895061145089,-0.2984312082362592,-0.16247656074371458,0.20083571783068446,0.6238495457433708,-0.10908337903268236,0.16268391094024864,-0.11104914066362634,-0.14424702058106176,0.20294124330795993,-0.09292213827378182,0.046684071133434916,-0.03511972450539683,-0.2285998964725343,0.7150272643893154,-0.3073715732411715,0.04060875022204574,-0.2529679283171266,-0.4159938012596496,0.7567022073260086,0.14249927932668224,0.04739176138652035,0.2613975546415121,-0.10364185029414019,-0.28287708167494546,0.03581740021317676,0.0118013146523015,0.45128396012242644,-0.013466153148726137,-0.8628589105375325,0.21857919382247928,0.13818090782197892,0.1454433692979055,-0.14424702058106176,0.20294124330795993,-0.09292213827378182,0.046684071133434916,-0.03511972450539683,-0.2285998964725343,0.7150272643893154,-0.3073715732411715,0.04060875022204574,-0.2529679283171266,-0.4159938012596496,0.7567022073260086,0.14249927932668224,0.04739176138652035,0.2613975546415121,-0.10364185029414019,-0.28287708167494546,0.03581740021317676,0.0118013146523015,0.45128396012242644,-0.013466153148726137,-0.8628589105375325,0.21857919382247928,0.13818090782197892,0.1454433692979055,-0.14424702058106176,0.20294124330795993,-0.09292213827378182,0.046684071133434916,-0.03511972450539683,-0.2285998964725343,0.7150272643893154,-0.3073715732411715,0.04060875022204574,-0.2529679283171266,-0.4159938012596496,0.7567022073260086,0.14249927932668224,0.04739176138652035,0.2613975546415121,-0.10364185029414019,-0.28287708167494546,0.03581740021317676,0.0118013146523015,0.45128396012242644,-0.013466153148726137,-0.8628589105375325,0.21857919382247928,0.13818090782197892,0.1454433692979055,-0.14424702058106176,0.20294124330795993,-0.09292213827378182,0.046684071133434916,-0.03511972450539683,-0.2285998964725343,0.7150272643893154,-0.3073715732411715,0.04060875022204574,-0.2529679283171266,-0.4159938012596496,0.7567022073260086,0.14249927932668224,0.04739176138652035,0.2613975546415121,-0.10364185029414019,-0.28287708167494546,0.03581740021317676,0.0118013146523015,0.45128396012242644,-0.013466153148726137,-0.8628589105375325,0.21857919382247928,0.13818090782197892,0.1454433692979055,-0.14424702058106176,0.20294124330795993,-0.09292213827378182,0.046684071133434916,-0.03511972450539683,-0.2285998964725343,0.7150272643893154,-0.3073715732411715,0.04060875022204574,-0.2529679283171266,-0.4159938012596496,0.7567022073260086,0.14249927932668224,0.04739176138652035,0.2613975546415121,-0.10364185029414019,-0.28287708167494546,0.03581740021317676,0.0118013146523015,0.45128396012242644,-0.013466153148726137,-0.8628589105375325,0.21857919382247928,0.13818090782197892,0.1454433692979055,-0.14424702058106176,0.20294124330795993,-0.09292213827378182,0.046684071133434916,-0.03511972450539683,-0.2285998964725343,0.7150272643893154,-0.3073715732411715,0.04060875022204574,-0.2529679283171266,-0.4159938012596496,0.7567022073260086,0.14249927932668224,0.04739176138652035,0.2613975546415121,-0.10364185029414019,-0.28287708167494546,0.03581740021317676,0.0118013146523015,0.45128396012242644,-0.013466153148726137,-0.8628589105375325,0.21857919382247928,0.13818090782197892,0.1454433692979055,-0.14424702058106176,0.20294124330795993,-0.09292213827378182,0.046684071133434916,-0.03511972450539683,-0.2285998964725343,0.7150272643893154,-0.3073715732411715,0.04060875022204574,-0.2529679283171266,-0.4159938012596496,0.7567022073260086,0.14249927932668224,0.04739176138652035,0.2613975546415121,-0.10364185029414019,-0.28287708167494546,0.03581740021317676,0.0118013146523015,0.45128396012242644,-0.013466153148726137,-0.8628589105375325,0.21857919382247928,0.13818090782197892,0.1454433692979055,-0.14424702058106176,0.20294124330795993,-0.09292213827378182,0.046684071133434916,-0.03511972450539683,-0.2285998964725343,0.7150272643893154,-0.3073715732411715,0.04060875022204574,-0.2529679283171266,-0.4159938012596496,0.7567022073260086,0.14249927932668224,0.04739176138652035,0.2613975546415121,-0.10364185029414019,-0.28287708167494546,0.03581740021317676,0.0118013146523015,0.45128396012242644,-0.013466153148726137,-0.8628589105375325,0.21857919382247928,0.13818090782197892,0.1454433692979055,-0.14424702058106176,0.20294124330795993,-0.09292213827378182,0.046684071133434916,-0.03511972450539683,-0.2285998964725343,0.7150272643893154,-0.3073715732411715,0.04060875022204574,-0.2529679283171266,-0.4159938012596496,0.7567022073260086,0.14249927932668224,0.04739176138652035,0.2613975546415121,-0.10364185029414019,-0.28287708167494546,0.03581740021317676,0.0118013146523015,0.45128396012242644,-0.013466153148726137,-0.8628589105375325,0.21857919382247928,0.13818090782197892,0.1454433692979055,-0.14424702058106176,0.20294124330795993,-0.09292213827378182,0.046684071133434916,-0.03511972450539683,-0.2285998964725343,0.7150272643893154,-0.3073715732411715,0.04060875022204574,-0.2529679283171266,-0.4159938012596496,0.7567022073260086,0.14249927932668224,0.04739176138652035,0.2613975546415121,-0.10364185029414019,-0.28287708167494546,0.03581740021317676,0.0118013146523015,0.45128396012242644,-0.013466153148726137,-0.8628589105375325,0.21857919382247928,0.13818090782197892,0.1454433692979055,-0.14424702058106176,0.20294124330795993,-0.09292213827378182,0.046684071133434916,-0.03511972450539683,-0.2285998964725343,0.7150272643893154,-0.3073715732411715,0.04060875022204574,-0.2529679283171266,-0.4159938012596496,0.7567022073260086,0.14249927932668224,0.04739176138652035,0.2613975546415121,-0.10364185029414019,-0.28287708167494546,0.03581740021317676,0.0118013146523015,0.45128396012242644,-0.013466153148726137,-0.8628589105375325,0.21857919382247928,0.13818090782197892,0.1454433692979055,-0.14424702058106176,0.20294124330795993,-0.09292213827378182,0.046684071133434916,-0.03511972450539683,-0.2285998964725343,0.7150272643893154,-0.3073715732411715,0.04060875022204574,-0.2529679283171266,-0.4159938012596496,0.7567022073260086,0.14249927932668224,0.04739176138652035,0.2613975546415121,-0.10364185029414019,-0.28287708167494546,0.03581740021317676,0.0118013146523015,0.45128396012242644,-0.013466153148726137,-0.8628589105375325,0.21857919382247928,0.13818090782197892,0.1454433692979055,-0.14424702058106176,0.20294124330795993,-0.09292213827378182,0.046684071133434916,-0.03511972450539683,-0.2285998964725343,0.7150272643893154,-0.3073715732411715,0.04060875022204574,-0.2529679283171266,-0.4159938012596496,0.7567022073260086,0.14249927932668224,0.04739176138652035,0.2613975546415121,-0.10364185029414019,-0.28287708167494546,0.03581740021317676,0.0118013146523015,0.45128396012242644,-0.013466153148726137,-0.8628589105375325,0.21857919382247928,0.13818090782197892,0.1454433692979055,-0.14424702058106176,0.20294124330795993,-0.09292213827378182,0.046684071133434916,-0.03511972450539683,-0.2285998964725343,0.7150272643893154,-0.3073715732411715,0.04060875022204574,-0.2529679283171266,-0.4159938012596496,0.7567022073260086,0.14249927932668224,0.04739176138652035,0.2613975546415121,-0.10364185029414019,-0.28287708167494546,0.03581740021317676,0.0118013146523015,0.45128396012242644,-0.013466153148726137,-0.8628589105375325,0.21857919382247928,0.13818090782197892,0.1454433692979055,-0.14424702058106176,0.20294124330795993,-0.09292213827378182,0.046684071133434916,-0.03511972450539683,-0.2285998964725343,0.7150272643893154,-0.3073715732411715,0.04060875022204574,-0.2529679283171266,-0.4159938012596496,0.7567022073260086,0.14249927932668224,0.04739176138652035,0.2613975546415121,-0.10364185029414019,-0.28287708167494546,0.03581740021317676,0.0118013146523015,0.45128396012242644,-0.013466153148726137,-0.8628589105375325,0.21857919382247928,0.13818090782197892,0.1454433692979055,-0.14424702058106176,0.20294124330795993,-0.09292213827378182,0.046684071133434916,-0.03511972450539683,-0.2285998964725343,0.7150272643893154,-0.3073715732411715,0.04060875022204574,-0.2529679283171266,-0.4159938012596496,0.7567022073260086,0.14249927932668224,0.04739176138652035,0.2613975546415121,-0.10364185029414019,-0.28287708167494546,0.03581740021317676,0.0118013146523015,0.45128396012242644,-0.013466153148726137,-0.8628589105375325,0.21857919382247928,0.13818090782197892,0.1454433692979055,-0.14424702058106176,0.20294124330795993,-0.09292213827378182,0.046684071133434916,-0.03511972450539683,-0.2285998964725343,0.7150272643893154,-0.3073715732411715,0.04060875022204574,-0.2529679283171266,-0.4159938012596496,0.7567022073260086,0.14249927932668224,0.04739176138652035,0.2613975546415121,-0.10364185029414019,-0.28287708167494546,0.03581740021317676,0.0118013146523015,0.45128396012242644,-0.013466153148726137,-0.8628589105375325,0.21857919382247928,0.13818090782197892,0.1454433692979055],[-0.25879882189981623,0.06119292509742076,0.38378723848247553,1.185332976597448,0.03862122778817332,-0.541379927751904,-0.5986545144383868,-0.7259535336532312,2.2539748767194565,0.7489127319433421,-0.23747509362868544,-0.40492458626212385,0.0442623109485952,0.6879936321194837,0.9275949969872147,-0.10127205614958923,0.6249211964714425,0.1340725480287275,-0.4514602810298412,0.8882409125423377,-0.5472385473430529,-0.0330301623250442,0.36900828713754047,-0.059871147052838934,0.6248347875504605,-0.3909936867251179,0.3504634201927,0.06871544365595729,0.7758398046937182,-0.03017458551041528,-1.045050970889587,-0.17282855865299215,-0.25002198168659134,1.9567006379948224,0.2548233792663043,-0.29114309751245043,0.6407226602791193,-0.07542637264408163,1.1471139384730697,0.3916971624382777,-0.1724654307094967,1.2494618896047032,0.07751089639490356,0.4291689243261673,0.30531293623234707,-0.19577293267409893,0.09797703882187725,0.2793866234231007,-0.1842280946794802,-0.09774345915657258,-0.3909936867251179,0.3504634201927,0.06871544365595729,0.7758398046937182,-0.03017458551041528,-1.045050970889587,-0.17282855865299215,-0.25002198168659134,1.9567006379948224,0.2548233792663043,-0.29114309751245043,0.6407226602791193,-0.07542637264408163,1.1471139384730697,0.3916971624382777,-0.1724654307094967,1.2494618896047032,0.07751089639490356,